%YAML:1.0
my_nn: !!opencv-ml-ann-mlp
   layer_sizes: !!opencv-matrix
      rows: 1
      cols: 3
      dt: i
      data: [ 1250, 100, 3 ]
   activation_function: SIGMOID_SYM
   f_param1: 6.6666666666666663e-001
   f_param2: 1.7159000000000000e+000
   min_val: -9.4999999999999996e-001
   max_val: 9.4999999999999996e-001
   min_val1: -9.7999999999999998e-001
   max_val1: 9.7999999999999998e-001
   training_params:
      train_method: BACKPROP
      dw_scale: 1.0000000000000001e-001
      moment_scale: 1.0000000000000001e-001
      term_criteria: { epsilon:9.9999999747524271e-007, iterations:2000 }
   input_scale: [ 1., 0., 1., 0., 1., 0., 1., 0., 1., 0., 1., 0., 1., 0.,
       1., 0., 1., 0., 1., 0., 1., 0., 1., 0., 1., 0., 1., 0., 1., 0.,
       1., 0., 1., 0., 1., 0., 1., 0., 1., 0., 1., 0., 1., 0., 1., 0.,
       1., 0., 1., 0., 1., 0., 1., 0., 1., 0., 1., 0., 1., 0., 1., 0.,
       1., 0., 1., 0., 1., 0., 1., 0., 1., 0., 1., 0., 1., 0., 1., 0.,
       1., 0., 1., 0., 1., 0., 1., 0., 1., 0., 1., 0., 1., 0., 1., 0.,
       1., 0., 1., 0., 1., 0., 1., 0., 1., 0., 1., 0., 1., 0., 1., 0.,
       1., 0., 1., 0., 1., 0., 1., 0., 1., 0., 1., 0., 1., 0., 1., 0.,
       1., 0., 1., 0., 1., 0., 1., 0., 1., 0., 1., 0., 1., 0., 1., 0.,
       1., 0., 1., 0., 1., 0., 1., 0., 1., 0., 1., 0., 1., 0., 1., 0.,
       1., 0., 1., 0., 1., 0., 1., 0., 1., 0., 1., 0., 1., 0., 1., 0.,
       1., 0., 1., 0., 1., 0., 1., 0., 1., 0., 1., 0., 1., 0., 1., 0.,
       1., 0., 1., 0., 1., 0., 1., 0., 1., 0., 1., 0., 1., 0., 1., 0.,
       1., 0., 1., 0., 1., 0., 1., 0., 1., 0., 1., 0., 1., 0., 1., 0.,
       1., 0., 1., 0., 1., 0., 1., 0., 1., 0., 1., 0., 1., 0., 1., 0.,
       1., 0., 1., 0., 1., 0., 1., 0., 1., 0., 1., 0., 1., 0., 1., 0.,
       1., 0., 1., 0., 1., 0., 1., 0., 1., 0., 1., 0., 1., 0., 1., 0.,
       1., 0., 1., 0., 1., 0., 1., 0., 1., 0., 1., 0., 1., 0., 1., 0.,
       1., 0., 1., 0., 1., 0., 1., 0., 1., 0., 1., 0., 1., 0., 1., 0.,
       1., 0., 1., 0., 1., 0., 1., 0., 1., 0., 1., 0., 1., 0., 1., 0.,
       1., 0., 1., 0., 1., 0., 1., 0., 1., 0., 1., 0., 1., 0., 1., 0.,
       1., 0., 1., 0., 1., 0., 1., 0., 1., 0., 1., 0., 1., 0., 1., 0.,
       1., 0., 1., 0., 1., 0., 1., 0., 1., 0., 1., 0., 1., 0., 1., 0.,
       1., 0., 1., 0., 1., 0., 1., 0., 1., 0., 1., 0., 1., 0., 1., 0.,
       1., 0., 1., 0., 1., 0., 1., 0., 1., 0., 1., 0., 1., 0., 1., 0.,
       1., 0., 1., 0., 1., 0., 1., 0., 1., 0., 1., 0., 1., 0., 1., 0.,
       1., 0., 1., 0., 1., 0., 1., 0., 1., 0., 1., 0., 1., 0., 1., 0.,
       1., 0., 1., 0., 1., 0., 1., 0., 1., 0., 1., 0., 1., 0., 1., 0.,
       1., 0., 1., 0., 1., 0., 1., 0., 1., 0., 1., 0., 1., 0., 1., 0.,
       1., 0., 1., 0., 1., 0., 1., 0., 1., 0., 1., 0., 1., 0., 1., 0.,
       1., 0., 1., 0., 1., 0., 1., 0., 1., 0., 1., 0., 1., 0., 1., 0.,
       1., 0., 1., 0., 1., 0., 1., 0., 1., 0., 1., 0., 1., 0., 1., 0.,
       1., 0., 1., 0., 1., 0., 1., 0., 1., 0., 1., 0., 1., 0., 1., 0.,
       1., 0., 1., 0., 1., 0., 1., 0., 1., 0., 1., 0., 1., 0., 1., 0.,
       1., 0., 1., 0., 1., 0., 1., 0., 1., 0., 1., 0., 1., 0., 1., 0.,
       1., 0., 1., 0., 1., 0., 1., 0., 1., 0., 1., 0., 1., 0., 1., 0.,
       1., 0., 1., 0., 1., 0., 1., 0., 1., 0., 1., 0., 1., 0., 1., 0.,
       1., 0., 1., 0., 1., 0., 1., 0., 1., 0., 1., 0., 1., 0., 1., 0.,
       1., 0., 1., 0., 1., 0., 1., 0., 1., 0., 1., 0., 1., 0., 1., 0.,
       1., 0., 1., 0., 1., 0., 1., 0., 1., 0., 1., 0., 1., 0., 1., 0.,
       1., 0., 1., 0., 1., 0., 1., 0., 1., 0., 1., 0., 1., 0., 1., 0.,
       1., 0., 1., 0., 1., 0., 1., 0., 1., 0., 1., 0., 1., 0., 1., 0.,
       1., 0., 1., 0., 1., 0., 1., 0., 1., 0., 1., 0., 1., 0., 1., 0.,
       1., 0., 1., 0., 1., 0., 1., 0., 1., 0., 1., 0., 1., 0., 1., 0.,
       1., 0., 1., 0., 1., 0., 1., 0., 1., 0., 1., 0., 1., 0., 1., 0.,
       1., 0., 1., 0., 1., 0., 1., 0., 1., 0., 1., 0., 1., 0., 1., 0.,
       1., 0., 1., 0., 1., 0., 1., 0., 1., 0., 1., 0., 1., 0., 1., 0.,
       1., 0., 1., 0., 1., 0., 1., 0., 1., 0., 1., 0., 1., 0., 1., 0.,
       1., 0., 1., 0., 1., 0., 1., 0., 1., 0., 1., 0., 1., 0., 1., 0.,
       1., 0., 1., 0., 1., 0., 1., 0., 1., 0., 1., 0., 1., 0., 1., 0.,
       1., 0., 1., 0., 1., 0., 1., 0., 1., 0., 1., 0., 1., 0., 1., 0.,
       1., 0., 1., 0., 1., 0., 1., 0., 1., 0., 1., 0., 1., 0., 1., 0.,
       1., 0., 1., 0., 1., 0., 1., 0., 1., 0., 1., 0., 1., 0., 1., 0.,
       1., 0., 1., 0., 1., 0., 1., 0., 1., 0., 1., 0., 1., 0., 1., 0.,
       1., 0., 1., 0., 1., 0., 1., 0., 1., 0., 1., 0., 1., 0., 1., 0.,
       1., 0., 1., 0., 1., 0., 1., 0., 1., 0., 1., 0., 1., 0., 1., 0.,
       1., 0., 1., 0., 1., 0., 1., 0., 1., 0., 1., 0., 1., 0., 1., 0.,
       1., 0., 1., 0., 1., 0., 1., 0., 1., 0., 1., 0., 1., 0., 1., 0.,
       1., 0., 1., 0., 1., 0., 1., 0., 1., 0., 1., 0., 1., 0., 1., 0.,
       1., 0., 1., 0., 1., 0., 1., 0., 1., 0., 1., 0., 1., 0., 1., 0.,
       1., 0., 1., 0., 1., 0., 1., 0., 1., 0., 1., 0., 1., 0., 1., 0.,
       1., 0., 1., 0., 1., 0., 1., 0., 1., 0., 1., 0., 1., 0., 1., 0.,
       1., 0., 1., 0., 1., 0., 1., 0., 1., 0., 1., 0., 1., 0., 1., 0.,
       1., 0., 1., 0., 1., 0., 1., 0., 1., 0., 1., 0., 1., 0., 1., 0.,
       1., 0., 1., 0., 1., 0., 1., 0., 1., 0., 1., 0., 1., 0., 1., 0.,
       1., 0., 1., 0., 1., 0., 1., 0., 1., 0., 1., 0., 1., 0., 1., 0.,
       1., 0., 1., 0., 1., 0., 1., 0., 1., 0., 1., 0., 1., 0., 1., 0.,
       1., 0., 1., 0., 1., 0., 1., 0., 1., 0., 1., 0., 1., 0., 1., 0.,
       1., 0., 1., 0., 1., 0., 1., 0., 1., 0., 1., 0., 1., 0., 1., 0.,
       1., 0., 1., 0., 1., 0., 1., 0., 1., 0., 1., 0., 1., 0., 1., 0.,
       1., 0., 1., 0., 1., 0., 1., 0., 1., 0., 1., 0., 1., 0., 1., 0.,
       1., 0., 1., 0., 1., 0., 1., 0., 1., 0., 1., 0., 1., 0., 1., 0.,
       1., 0., 1., 0., 1., 0., 1., 0., 1., 0., 1., 0., 1., 0., 1., 0.,
       1., 0., 1., 0., 1., 0., 1., 0., 1., 0., 1., 0., 1., 0., 1., 0.,
       1., 0., 1., 0., 1., 0., 1., 0., 1., 0., 1., 0., 1., 0., 1., 0.,
       1., 0., 1., 0., 1., 0., 1., 0., 1., 0., 1., 0., 1., 0., 1., 0.,
       1., 0., 1., 0., 1., 0., 1., 0., 1., 0., 1., 0., 1., 0., 1., 0.,
       1., 0., 1., 0., 1., 0., 1., 0., 1., 0., 1., 0., 1., 0., 1., 0.,
       1., 0., 1., 0., 1., 0., 1., 0., 1., 0., 1., 0., 1., 0., 1., 0.,
       1., 0., 1., 0., 1., 0., 1., 0., 1., 0., 1., 0., 1., 0., 1., 0.,
       1., 0., 1., 0., 1., 0., 1., 0., 1., 0., 1., 0., 1., 0., 1., 0.,
       1., 0., 1., 0., 1., 0., 1., 0., 1., 0., 1., 0., 1., 0., 1., 0.,
       1., 0., 1., 0., 1., 0., 1., 0., 1., 0., 1., 0., 1., 0., 1., 0.,
       1., 0., 1., 0., 1., 0., 1., 0., 1., 0., 1., 0., 1., 0., 1., 0.,
       1., 0., 1., 0., 1., 0., 1., 0., 1., 0., 1., 0., 1., 0., 1., 0.,
       1., 0., 1., 0., 1., 0., 1., 0., 1., 0., 1., 0., 1., 0., 1., 0.,
       1., 0., 1., 0., 1., 0., 1., 0., 1., 0., 1., 0., 1., 0., 1., 0.,
       1., 0., 1., 0., 1., 0., 1., 0., 1., 0., 1., 0., 1., 0., 1., 0.,
       1., 0., 1., 0., 1., 0., 1., 0., 1., 0., 1., 0., 1., 0., 1., 0.,
       1., 0., 1., 0., 1., 0., 1., 0., 1., 0., 1., 0., 1., 0., 1., 0.,
       1., 0., 1., 0., 1., 0., 1., 0., 1., 0., 1., 0., 1., 0., 1., 0.,
       1., 0., 1., 0., 1., 0., 1., 0., 1., 0., 1., 0., 1., 0., 1., 0.,
       1., 0., 1., 0., 1., 0., 1., 0., 1., 0., 1., 0., 1., 0., 1., 0.,
       1., 0., 1., 0., 1., 0., 1., 0., 1., 0., 1., 0., 1., 0., 1., 0.,
       1., 0., 1., 0., 1., 0., 1., 0., 1., 0., 1., 0., 1., 0., 1., 0.,
       1., 0., 1., 0., 1., 0., 1., 0., 1., 0., 1., 0., 1., 0., 1., 0.,
       1., 0., 1., 0., 1., 0., 1., 0., 1., 0., 1., 0., 1., 0., 1., 0.,
       1., 0., 1., 0., 1., 0., 1., 0., 1., 0., 1., 0., 1., 0., 1., 0.,
       1., 0., 1., 0., 1., 0., 1., 0., 1., 0., 1., 0., 1., 0., 1., 0.,
       1., 0., 1., 0., 1., 0., 1., 0., 1., 0., 1., 0., 1., 0., 1., 0.,
       1., 0., 1., 0., 1., 0., 1., 0., 1., 0., 1., 0., 1., 0., 1., 0.,
       1., 0., 1., 0., 1., 0., 1., 0., 1., 0., 1., 0., 1., 0., 1., 0.,
       1., 0., 1., 0., 1., 0., 1., 0., 1., 0., 1., 0., 1., 0., 1., 0.,
       1., 0., 1., 0., 1., 0., 1., 0., 1., 0., 1., 0., 1., 0., 1., 0.,
       1., 0., 1., 0., 1., 0., 1., 0., 1., 0., 1., 0., 1., 0., 1., 0.,
       1., 0., 1., 0., 1., 0., 1., 0., 1., 0., 1., 0., 1., 0., 1., 0.,
       1., 0., 1., 0., 1., 0., 1., 0., 1., 0., 1., 0., 1., 0., 1., 0.,
       1., 0., 1., 0., 1., 0., 1., 0., 1., 0., 1., 0., 1., 0., 1., 0.,
       1., 0., 1., 0., 1., 0., 1., 0., 1., 0., 1., 0., 1., 0., 1., 0.,
       1., 0., 1., 0., 1., 0., 1., 0., 1., 0., 1., 0., 1., 0., 1., 0.,
       1., 0., 1., 0., 1., 0., 1., 0., 1., 0., 1., 0., 1., 0., 1., 0.,
       1., 0., 1., 0., 1., 0., 1., 0., 1., 0., 1., 0., 1., 0., 1., 0.,
       1., 0., 1., 0., 1., 0., 1., 0., 1., 0., 1., 0., 1., 0., 1., 0.,
       1., 0., 1., 0., 1., 0., 1., 0., 1., 0., 1., 0., 1., 0., 1., 0.,
       1., 0., 1., 0., 1., 0., 1., 0., 1., 0., 1., 0., 1., 0., 1., 0.,
       1., 0., 1., 0., 1., 0., 1., 0., 1., 0., 1., 0., 1., 0., 1., 0.,
       1., 0., 1., 0., 1., 0., 1., 0., 1., 0., 1., 0., 1., 0., 1., 0.,
       1., 0., 1., 0., 1., 0., 1., 0., 1., 0., 1., 0., 1., 0., 1., 0.,
       1., 0., 1., 0., 1., 0., 1., 0., 1., 0., 1., 0., 1., 0., 1., 0.,
       1., 0., 1., 0., 1., 0., 1., 0., 1., 0., 1., 0., 1., 0., 1., 0.,
       1., 0., 1., 0., 1., 0., 1., 0., 1., 0., 1., 0., 1., 0., 1., 0.,
       1., 0., 1., 0., 1., 0., 1., 0., 1., 0., 1., 0., 1., 0., 1., 0.,
       1., 0., 1., 0., 1., 0., 1., 0., 1., 0., 1., 0., 1., 0., 1., 0.,
       1., 0., 1., 0., 1., 0., 1., 0., 1., 0., 1., 0., 1., 0., 1., 0.,
       1., 0., 1., 0., 1., 0., 1., 0., 1., 0., 1., 0., 1., 0., 1., 0.,
       1., 0., 1., 0., 1., 0., 1., 0., 1., 0., 1., 0., 1., 0., 1., 0.,
       1., 0., 1., 0., 1., 0., 1., 0., 1., 0., 1., 0., 1., 0., 1., 0.,
       1., 0., 1., 0., 1., 0., 1., 0., 1., 0., 1., 0., 1., 0., 1., 0.,
       1., 0., 1., 0., 1., 0., 1., 0., 1., 0., 1., 0., 1., 0., 1., 0.,
       1., 0., 1., 0., 1., 0., 1., 0., 1., 0., 1., 0., 1., 0., 1., 0.,
       1., 0., 1., 0., 1., 0., 1., 0., 1., 0., 1., 0., 1., 0., 1., 0.,
       1., 0., 1., 0., 1., 0., 1., 0., 1., 0., 1., 0., 1., 0., 1., 0.,
       1., 0., 1., 0., 1., 0., 1., 0., 1., 0., 1., 0., 1., 0., 1., 0.,
       1., 0., 1., 0., 1., 0., 1., 0., 1., 0., 1., 0., 1., 0., 1., 0.,
       1., 0., 1., 0., 1., 0., 1., 0., 1., 0., 1., 0., 1., 0., 1., 0.,
       1., 0., 1., 0., 1., 0., 1., 0., 1., 0., 1., 0., 1., 0., 1., 0.,
       1., 0., 1., 0., 1., 0., 1., 0., 1., 0., 1., 0., 1., 0., 1., 0.,
       1., 0., 1., 0., 1., 0., 1., 0., 1., 0., 1., 0., 1., 0., 1., 0.,
       1., 0., 1., 0., 1., 0., 1., 0., 1., 0., 1., 0., 1., 0., 1., 0.,
       1., 0., 1., 0., 1., 0., 1., 0., 1., 0., 1., 0., 1., 0., 1., 0.,
       1., 0., 1., 0., 1., 0., 1., 0., 1., 0., 1., 0., 1., 0., 1., 0.,
       1., 0., 1., 0., 1., 0., 1., 0., 1., 0., 1., 0., 1., 0., 1., 0.,
       1., 0., 1., 0., 1., 0., 1., 0., 1., 0., 1., 0., 1., 0., 1., 0.,
       1., 0., 1., 0., 1., 0., 1., 0., 1., 0., 1., 0., 1., 0., 1., 0.,
       1., 0., 1., 0., 1., 0., 1., 0., 1., 0., 1., 0., 1., 0., 1., 0.,
       1., 0., 1., 0., 1., 0., 1., 0., 1., 0., 1., 0., 1., 0., 1., 0.,
       1., 0., 1., 0., 1., 0., 1., 0., 1., 0., 1., 0., 1., 0., 1., 0.,
       1., 0., 1., 0., 1., 0., 1., 0., 1., 0., 1., 0., 1., 0., 1., 0.,
       1., 0., 1., 0., 1., 0., 1., 0., 1., 0., 1., 0., 1., 0., 1., 0.,
       1., 0., 1., 0., 1., 0., 1., 0., 1., 0., 1., 0., 1., 0., 1., 0.,
       1., 0., 1., 0., 1., 0., 1., 0., 1., 0., 1., 0., 1., 0., 1., 0.,
       1., 0., 1., 0., 1., 0., 1., 0., 1., 0., 1., 0., 1., 0., 1., 0.,
       1., 0., 1., 0., 1., 0., 1., 0., 1., 0., 1., 0., 1., 0., 1., 0.,
       1., 0., 1., 0., 1., 0., 1., 0., 1., 0., 1., 0., 1., 0., 1., 0.,
       1., 0., 1., 0., 1., 0., 1., 0., 1., 0., 1., 0., 1., 0., 1., 0.,
       1., 0., 1., 0., 1., 0., 1., 0., 1., 0., 1., 0., 1., 0., 1., 0.,
       1., 0., 1., 0., 1., 0. ]
   output_scale: [ 5.2631578947368418e-001, 4.9999999999999994e-001,
       5.2631578947368418e-001, 4.9999999999999994e-001,
       5.2631578947368418e-001, 4.9999999999999994e-001 ]
   inv_output_scale: [ 1.8999999999999999e+000, -9.4999999999999996e-001,
       1.8999999999999999e+000, -9.4999999999999996e-001,
       1.8999999999999999e+000, -9.4999999999999996e-001 ]
   weights:
      - [ -1.4875327376221643e-003, -5.5991687141537859e-004,
          -1.3373248384995564e-003, -4.1680213192434691e-004,
          -1.2887284506864518e-003, -8.9342841713151405e-004,
          -7.3932300579956207e-004, 1.6119918857854904e-004,
          -5.2706632054837601e-004, 1.5137516394153958e-004,
          -1.4673119812921779e-003, 1.5941109662962931e-003,
          2.7964403034066255e-004, 3.1761433450531497e-004,
          -1.0009812535658883e-003, -1.3002378640441965e-003,
          6.6505609709158902e-004, -3.0156456396618337e-004,
          -3.8156616458085362e-004, -7.1238994421763378e-004,
          -1.9436640032306551e-004, 5.2849493361108862e-004,
          -1.3235937957472029e-004, 4.4460050527265062e-004,
          1.1041462437024756e-003, 6.7265863900657955e-004,
          1.3876919377873371e-003, 7.4051538331990150e-004,
          1.4090152016397017e-003, -4.7144972527413180e-004,
          1.4156608389043136e-003, 8.4963280209201294e-004,
          -1.3628119613084495e-003, -4.9006001020124703e-004,
          -1.5510735054123087e-004, -2.3417706525426151e-004,
          -6.7706803765730779e-004, -7.4018075088897709e-004,
          4.9753383010667999e-004, 3.2017371447695529e-004,
          -1.1795589437050137e-004, 7.7466186881652486e-004,
          9.7473024571128957e-004, 7.9643367053585114e-005,
          -1.3385193080155424e-003, 1.5392600509130802e-003,
          -6.4094947535056493e-004, -1.3351379359720846e-004,
          -5.9978328991451731e-004, 7.5312386857902345e-004,
          -1.3707727207036727e-003, 1.0413103353623901e-003,
          1.2047833190829072e-004, -9.3462287950929772e-004,
          8.3031797859567293e-004, 9.9534633421528330e-004,
          -2.9466318735613762e-004, 1.1460258137322976e-003,
          -1.4497017382433847e-003, 1.0745809855833858e-003,
          1.3822912480611141e-003, -7.6615989085686558e-004,
          1.6425734088698889e-004, 5.8717581603628998e-004,
          1.5613080548044955e-003, -1.4418861624660084e-003,
          -3.2481596434815867e-004, 1.0521480104046875e-003,
          -7.1157049421651398e-004, 1.0780700725316927e-003,
          7.8802500536972846e-004, -9.4079250638572076e-004,
          -1.5501489645385644e-003, -1.4499028570932105e-003,
          -1.3164547980766223e-003, -1.2570511936242357e-003,
          -8.6545424122067157e-004, 7.8937341482833369e-004,
          1.0563377536159492e-003, 9.6166769162778415e-006,
          -3.7156234175174776e-004, -8.4058167062261394e-004,
          -1.2235480187327145e-003, 1.1702039019957557e-003,
          -6.3282472954491052e-004, -8.9827030659555879e-004,
          -1.1662040151019810e-003, -9.8116702193927680e-004,
          -1.0662352283026140e-003, -7.0242757217615220e-004,
          -3.6506445152875949e-004, 1.5632929644632151e-004,
          -1.0065719598551617e-003, 1.2052516842140327e-003,
          -5.2351820826175783e-004, 7.4511991094642884e-005,
          2.0588065177000285e-004, -1.3348644560388671e-003,
          -1.5747164187644900e-004, 8.9288674854287825e-004,
          1.2701026119477858e-003, 8.1048566002482213e-004,
          1.1357029945655392e-003, -3.4893075775578787e-004,
          1.4345391063500372e-004, -1.0947659032588891e-003,
          -8.9797384153707575e-004, -1.0242772492428118e-003,
          3.5918878971486211e-004, 8.8080522351374117e-004,
          8.1746437607989211e-004, -1.4845503583443720e-004,
          -4.7640539461963716e-004, -1.1302525442144266e-003,
          9.7506504812753159e-004, -8.1472944136677476e-004,
          -4.8040047559664689e-004, 3.7804747912868693e-004,
          -1.2586242006900484e-003, 1.1416103953640765e-003,
          6.7942487390026149e-004, 1.6154430911011965e-003,
          9.4559999797521244e-004, 1.2148933448511219e-003,
          -5.9906216695081323e-004, 1.1859399407720011e-003,
          -8.4942529450765893e-004, -4.2732587849347896e-004,
          -6.4444875543445235e-005, 8.4482895586408650e-004,
          -1.2653099351026323e-003, -6.3434259556510145e-004,
          -6.4388692499908306e-004, 4.2607291920176125e-004,
          -1.3845412711489124e-004, 2.1270772632687288e-004,
          9.8928080212283727e-004, 4.1628998458025015e-004,
          9.7470125643317029e-004, -6.1325169153405285e-005,
          7.8775468651113590e-006, -1.1264714642695033e-003,
          8.4259987652253281e-004, -3.7373388894127341e-004,
          -1.0713110895716985e-003, -1.3278804757872248e-003,
          -1.6103724825553597e-004, 1.7615570116227128e-004,
          1.1650679501288964e-003, 3.2603394841369484e-004,
          7.5926175580585346e-004, -1.0877593392419371e-003,
          6.9367505165513670e-004, 4.7372612135115005e-004,
          -9.4910392348022423e-004, 9.7604417061461243e-006,
          9.4181058375752654e-004, -8.6301133471416275e-004,
          1.0205283254462821e-004, -2.9647155777316265e-004,
          -1.0866498374585351e-003, -2.3704237951291095e-004,
          -2.6435572191432457e-004, 6.4307211010525061e-004,
          -4.4118904558942815e-004, 6.0822626988455406e-004,
          -1.1336258479440100e-003, -4.2700614198635514e-004,
          8.9399418830411281e-004, -9.8342819576734044e-004,
          4.9491072383241695e-004, -1.6490280090912174e-004,
          5.7695224486833117e-004, 6.0491060029023522e-004,
          -7.4519644125497897e-006, 8.9567607830489391e-004,
          1.1776667922065490e-003, 1.3076408488213783e-003,
          -1.4108703380190588e-003, 4.1389036186335751e-004,
          1.0554018330438499e-004, 7.4847816196497530e-004,
          5.5410968639497168e-004, 1.4867448957864751e-003,
          -1.8305587497038678e-004, -1.3057144872490310e-003,
          -2.4506476313754873e-004, 1.3114243269003935e-003,
          9.7725942101448029e-004, 6.1187525334699920e-004,
          -2.7411283760273540e-004, -1.0226707876326304e-003,
          -6.2526950419461934e-004, 6.5438273935999327e-004,
          2.8421819455576352e-004, 1.1081190899026702e-003,
          4.7569143340834744e-004, -8.0560860721195558e-005,
          -6.1744610715845389e-004, -3.3040942102349971e-005,
          1.3843427661523054e-003, -1.1333537167042388e-003,
          -3.8645557606141036e-005, -2.8675380790167345e-004,
          2.3206947552064730e-004, 1.1645959124504698e-003,
          1.3764377136415481e-003, 1.4676569104988813e-003,
          1.4132380451174705e-004, -1.0713698097096524e-003,
          -1.4533580364687129e-003, 1.2373556710360437e-003,
          9.5879639212602375e-004, -8.1932315437895390e-004,
          -1.3860779562715703e-003, -7.7739406383986671e-004,
          1.0424352773309741e-003, 1.2883083897206229e-004,
          -7.5155205284139495e-005, -1.5111595470465792e-004,
          -2.6911212643415444e-004, -1.6028676592178513e-003,
          -6.6470336774054938e-004, 1.0532759190281698e-003,
          4.2603754640205662e-004, 9.6503568256458476e-004,
          9.9217027179654828e-004, -3.9011214229938985e-004,
          -7.1506918975886642e-005, 1.3580329496120386e-003,
          -6.7025402481968462e-004, 1.3802946331426490e-003,
          6.9032360300445557e-004, -1.1568087946714006e-003,
          9.5012066798364088e-004, 8.1783412803118172e-004,
          -8.3879280325859765e-004, -1.7682340956557573e-004,
          -1.5955807661395100e-003, 3.1068245709876596e-004,
          -2.7863609939744255e-004, 1.5802805674462702e-003,
          1.4946547919406105e-003, 5.5983844172198983e-004,
          2.6449843428978811e-004, 7.2494673439885951e-004,
          4.5491586431714120e-004, -1.7082568129556550e-004,
          1.5138429810317711e-003, -1.6659789134178770e-004,
          1.1560630039438797e-003, 3.3023546310920627e-004,
          7.1455867122532319e-005, 1.0869397660021745e-003,
          -6.8172520102316426e-004, -1.7459190412312772e-004,
          -5.2784468224612695e-005, 2.8253980684390430e-004,
          1.3586832873828006e-003, -9.9487790273521982e-004,
          1.1791205207342878e-003, -4.7332074139596853e-005,
          6.1189911882388395e-004, -4.3339345772336275e-004,
          -8.5486311721150339e-004, 1.2949285603575075e-003,
          4.8752704193210180e-004, -1.0757804606714720e-003,
          -1.4203708333615410e-003, 1.2609779245785840e-003,
          6.9353552083201316e-004, -2.3807058619946771e-004,
          7.9945454248805568e-004, -4.5426610923304030e-004,
          -5.8364614454713257e-004, 1.4689434474068096e-003,
          -7.6896591990876866e-004, 2.9991120633108859e-004,
          6.2618171278663003e-004, 7.5589712866917458e-005,
          1.1701579318017215e-003, 2.8807706091138268e-004,
          -1.0013702362987923e-003, -1.1315733374594218e-003,
          -2.6615620635548046e-005, 1.0731683068370202e-003,
          1.3948476001996901e-003, -1.5998915152906936e-003,
          -5.1429564501122392e-005, 9.4820944414811595e-004,
          1.1037999803865084e-003, 1.8899750859699500e-004,
          -3.0923247884076272e-004, -1.1687203592780086e-003,
          1.6328072417801982e-004, 2.3416014872122804e-004,
          1.2703047826956263e-003, -1.1629044190644799e-003,
          7.1412510656646856e-004, -9.6489104877883465e-004,
          -7.1854650317221985e-004, 1.5494953844996235e-003,
          1.1252785721059953e-003, -4.1763374528858127e-004,
          1.0654890194060938e-004, 1.5484371192256276e-003,
          1.5013849643172753e-003, 6.7371818332856621e-004,
          1.5434582367700696e-003, 8.9255074453056327e-004,
          9.9945882772017099e-004, -5.0595280580289571e-004,
          7.5376620759550416e-004, 1.0151330918787933e-003,
          1.2411749989678592e-003, -7.5738580117805984e-004,
          -2.2499945324721236e-004, 1.0899259168026560e-003,
          -1.4593234647911845e-005, 3.7282846370514114e-004,
          -6.1187475254700430e-004, -1.5536389809724211e-003,
          -8.0885978979085716e-004, 1.0897243174538037e-003,
          -5.1284835950919292e-004, -2.1371038252933802e-004,
          1.1679432266561275e-003, -1.9825378506029039e-004,
          -1.4232834622467608e-003, 1.2209979678899482e-003,
          1.1211048409459537e-003, -9.5554861528762973e-004,
          9.8622031249518739e-004, -1.6461850142185261e-004,
          -1.4165389632339596e-003, 1.1963623254249045e-003,
          1.2994023903911893e-003, -4.2192698557115955e-004,
          4.9434859277272959e-004, 5.7328490495394042e-004,
          8.9435427496588544e-006, -6.3546559174953326e-004,
          -7.2198945340890821e-004, 6.8993738620772287e-004,
          -4.0882903295478103e-004, 1.3469603258230200e-003,
          5.2101458701075422e-004, 1.1870000797593338e-003,
          -1.1393559485440080e-003, -1.3420170135430938e-003,
          6.4279391061217519e-004, -8.2300325362530662e-004,
          -4.6617420126165442e-005, -3.4926252172341748e-004,
          -2.2932095880091904e-004, -1.5520053105374278e-003,
          1.3289079647824473e-005, -1.4721800116230313e-003,
          1.3991659834902142e-004, 9.8486092459980335e-004,
          9.6284671448718768e-004, -7.1318649616180705e-004,
          -1.5033136985316063e-003, -1.9069796926461768e-004,
          5.2683842522200037e-004, 7.3337862850711183e-004,
          4.0880871793772010e-004, -1.1949329482114389e-003,
          6.3331815688381758e-004, -1.3674164918926067e-003,
          8.0861597521368243e-004, 6.6501852476642711e-004,
          1.3251402105969735e-003, -4.8917601839984688e-004,
          -2.0540024079292722e-004, 2.8961433841363549e-004,
          -2.7232535845909045e-004, 1.1967557861378673e-003,
          1.1177468151440879e-004, -5.7935539503620116e-004,
          -1.4579355799707351e-004, -2.2936068622137750e-004,
          -5.2029506262052426e-004, -1.4875008124650840e-003,
          -1.7890849431664244e-004, -1.2805813484120690e-003,
          -1.2186129152216797e-003, 5.5731993264262027e-004,
          -1.0350375343521762e-003, 6.6018970698872466e-004,
          7.9041818116386300e-005, -6.4063366493444891e-004,
          1.2897740144324603e-003, -1.3292307185487839e-003,
          1.3859054102960675e-003, -8.7308242740265186e-004,
          -5.5372009812474136e-004, 1.3345315814568719e-003,
          1.2225367307802284e-003, -2.2424859780768787e-004,
          9.7474471838143197e-004, 1.5293873566745884e-004,
          1.0749683784598738e-003, -2.9727259239480282e-004,
          -3.5397576413370935e-004, -7.5496398906509988e-004,
          1.5410054155421901e-003, -1.2834356708294821e-003,
          9.7061897449067405e-004, 1.2879808175677149e-003,
          3.1245220162346918e-004, -4.3197173624000382e-004,
          6.2033828363108076e-004, -2.7005826994855439e-004,
          -1.9607126897099254e-005, -3.3763030969829387e-004,
          6.5640627222740956e-004, -6.0635460286443744e-004,
          3.4428457507719364e-004, 8.3690754576624471e-004,
          2.2590160270663568e-005, 8.1619757953785310e-004,
          8.9178416784966891e-004, -7.0033868076046319e-004,
          1.4671144558706466e-003, -7.9455578111607130e-004,
          8.3091913622445406e-005, 8.4898526970297254e-004,
          -8.9819167193380017e-004, -8.7099883756177243e-004,
          1.5475903528411436e-003, -1.2040875743910036e-004,
          1.1558532255409881e-003, -9.0969684727159510e-004,
          -3.1086906477170723e-004, -9.6791256197506818e-004,
          1.0602427490080653e-003, -4.4831311509324509e-004,
          2.9290650623320678e-004, 7.1781948250861528e-004,
          -3.9985213921569444e-004, 8.0999490458602850e-005,
          -1.4602239351072012e-004, 5.3310214288401422e-004,
          1.0041239574691487e-003, -1.2488125658289863e-003,
          1.0314776031036007e-003, 1.5228779218112061e-003,
          1.2241677032649143e-004, -4.8414635601994467e-004,
          -1.1420295421608339e-003, -7.6090817200162228e-004,
          -1.2888511751154065e-003, 1.3642938690321253e-003,
          5.1809065926091075e-004, 1.3657518859665737e-003,
          1.4271128017342024e-003, -1.5982656854239847e-003,
          1.4219735155113172e-003, 1.2034011097826159e-003,
          8.1282192607099715e-004, -8.2809686422193117e-004,
          -4.9479042352942849e-004, 5.2905574539455972e-004,
          1.0082014595031781e-003, 7.1742899774853276e-004,
          1.6010097619866919e-003, -5.8423985872413636e-004,
          2.8889984085853592e-005, 1.0977769980145599e-004,
          2.5504738252676601e-004, -4.6180321506969577e-004,
          -1.2996466634837193e-004, -6.1578047954672179e-004,
          6.2921876880111995e-004, 5.3381457633164785e-004,
          -1.9731010657938290e-004, 1.3697069915145955e-003,
          -1.1493018192317956e-003, 9.4423452597972469e-004,
          1.1686018495710816e-004, -1.0212683414853171e-003,
          -1.5919305957078779e-003, -9.8009372029936054e-004,
          -4.0642433352289573e-004, 5.5254686470438124e-004,
          1.5178998779023739e-003, 6.9383549225619670e-004,
          -2.8131547775039163e-004, 9.8440427954680360e-004,
          1.1983887015274237e-003, -1.4869024622011816e-003,
          -3.3682785814924735e-004, 1.8636407396917048e-004,
          -7.9532935139252380e-004, 4.4330472607590296e-004,
          -1.3670918778925765e-003, -1.3521650766699256e-003,
          -1.0819845836960603e-003, -9.0514434539951474e-004,
          1.5151794998579018e-003, 1.8692439651319873e-004,
          1.5678560158484520e-003, 1.3869912711973532e-003,
          6.1564053023835787e-004, 5.7250683169618932e-004,
          1.1738736124862908e-004, 2.7924462014861247e-004,
          8.7463593762144361e-004, -3.9206604638382581e-004,
          1.3039920904912093e-003, -2.8187922214363515e-004,
          1.1176219182146242e-003, -1.4086062795277731e-003,
          -6.0477208104507078e-004, 4.3560743598375601e-004,
          -6.8275139482009317e-004, -9.3895401902614934e-004,
          -1.1203403088159364e-003, 1.4224384078329905e-003,
          -6.9860161796906240e-004, -7.1731577155333874e-004,
          -6.1580155438956878e-004, -4.5882848250734088e-004,
          -9.3413857962166451e-004, -2.5224387593919973e-004,
          -1.0624116422333092e-003, -7.2738198241714940e-004,
          -1.3531935295802856e-003, -2.5771284492104790e-004,
          1.1165494951848379e-003, 1.3972535053220112e-003,
          1.9405918757680786e-005, 1.1088264425234559e-003,
          -6.7461342396088247e-004, 4.5950767456389032e-004,
          1.4544086869577547e-003, 6.2862991726775612e-004,
          3.5079142752286724e-004, -5.7680812707768263e-004,
          -1.5571195014581181e-003, 3.2479872611489776e-004,
          -1.1743706560586821e-003, 1.1526406331921425e-003,
          1.0037515250286386e-003, 5.1030023330036318e-004,
          -4.9740811895203991e-004, -3.7008847961089101e-004,
          -1.9259326146718700e-004, -9.6330631601467486e-004,
          -7.8818008737802970e-004, 1.1612990557405252e-003,
          -1.4816332327322920e-003, 5.0038906660248531e-004,
          1.2268058853342901e-003, -3.9255120096381166e-004,
          -6.3883133831344060e-004, 5.6590603596222639e-004,
          -6.5298461085526373e-004, -1.2308687537506281e-003,
          -1.2982572414625554e-003, 2.7277671953367366e-004,
          1.3191876458551650e-003, 9.2651289943801137e-004,
          3.0837746396402186e-004, -1.2989266232794727e-003,
          -9.5026195404620379e-004, -5.1643224233240592e-004,
          1.3027360265337727e-003, 4.8292339772128203e-004,
          1.1526197019125781e-003, -1.1420920060568867e-004,
          2.4308558651231184e-004, 3.4548588796377947e-004,
          -1.5534410429026060e-003, 1.1568010557754722e-003,
          -4.4198482114903286e-004, -1.1573767535049773e-003,
          -1.3470720175821709e-003, -3.5382653008887629e-004,
          -8.6615462689346287e-004, -1.2547231245480400e-003,
          -7.0848942639295065e-004, 1.0377725173993824e-003,
          -1.1258863979392308e-003, -2.5759828262948416e-004,
          -1.3214670484729292e-003, -3.8042591342839108e-004,
          -2.9770618733686776e-004, -1.3067498765851140e-003,
          -1.1631839046262664e-003, 5.0263922447637199e-004,
          1.2473389722204250e-003, 1.3446916509493680e-003,
          -1.0251336016710603e-003, -1.5873251130787815e-003,
          -1.0345869251337737e-003, 8.6814891549502734e-004,
          6.8739131191164341e-004, -2.3717973871253815e-004,
          2.7185386844783715e-004, -5.5781046066173418e-004,
          -1.2280392661619241e-003, 1.7547916753243641e-005,
          -7.9228562566584118e-004, 9.3623464794052901e-004,
          -6.6530724402903457e-004, 2.5529760844204965e-004,
          5.0258335789221849e-004, -8.6001005122785239e-004,
          6.9723640299482507e-004, -9.6887403531988406e-004,
          -7.8446206068474150e-004, -1.1242520056715935e-003,
          -8.6505345076830556e-004, -2.5067725104276241e-004,
          4.3257124997043087e-005, -3.6448167049615854e-004,
          -1.4604933826286484e-003, 8.2685925108630582e-004,
          1.5474126856918169e-003, -1.3401495947961458e-003,
          4.3607502278952029e-004, 8.5307284479653391e-004,
          -8.2173517139115645e-004, 1.1336040262681694e-003,
          -8.4544013510210359e-004, 5.3210015270263415e-004,
          2.3042957251051110e-004, -1.4414892110103990e-003,
          1.1943469247056687e-004, -1.5279579865850844e-003,
          -8.2645834795474005e-005, 6.7492477791237767e-004,
          2.9954035618257356e-004, 5.7791751846445068e-004,
          -1.4125391128863162e-003, -7.7542590699125830e-004,
          -4.8176287303964177e-004, -1.3015942109735597e-003,
          -7.5053286546864417e-004, 9.0134265255211940e-004,
          6.2331277283714280e-004, -8.4895499039548759e-004,
          -1.4976739957377585e-004, 8.6591959119354167e-005,
          -1.0605246932767717e-003, -2.4467088610395139e-004,
          -4.6696406550530167e-005, 1.0674068494475432e-003,
          1.0713207848863618e-003, -9.6882765734971919e-006,
          -3.7359815934370419e-004, -9.3769266258901030e-004,
          -4.8001183097652064e-004, -5.6443121383090448e-004,
          1.1071546622808970e-003, 4.8523014159516936e-004,
          -1.4846217237448372e-004, 1.8437979637986107e-004,
          -1.1969320451007143e-003, 4.1880278679862389e-004,
          -1.0060136745595190e-003, 4.6606992377856953e-004,
          4.9708288986122934e-005, -2.1549593454914347e-005,
          1.6135121756553367e-003, 1.5655433703383450e-003,
          -1.5188452573595293e-003, -1.8069212632701535e-004,
          -1.2984655658332810e-003, 1.3657696992338899e-003,
          -8.8342478886976634e-004, 9.1257309976524432e-004,
          -1.5320504888685993e-003, -1.0140294694755715e-006,
          6.0439458620626838e-004, 3.8472439503768374e-004,
          1.2101176775432770e-003, 9.6092894582969842e-004,
          9.8188066304553457e-004, 9.6052339864459890e-004,
          -2.7096143758813300e-004, -1.5033058590159046e-003,
          -3.2668352006049931e-004, -9.5471195013623132e-004,
          1.0441466951241142e-003, -1.5545891874570992e-003,
          -1.2514221244900624e-003, -2.9976555167863946e-005,
          1.5180166294410300e-003, -2.8070490820407596e-004,
          -7.7925123038374540e-004, 3.7716570532433523e-004,
          -5.9279292356389363e-004, -1.0339944529987985e-003,
          1.0424492235477309e-003, -8.1884828647009174e-004,
          -1.0918677621393955e-003, 9.7765088536183706e-004,
          5.1754043392207550e-004, 5.0445620578025462e-004,
          4.9453065418330103e-004, -8.6768902490340924e-004,
          1.1424404527225552e-004, 1.0835612209813003e-003,
          -7.6871151668280325e-004, 1.1701798269361848e-003,
          -4.7553167910510186e-004, 9.3003931248948179e-004,
          1.1852649349542775e-003, 1.5841508020630305e-003,
          -9.9926644173708025e-004, -5.5338350211703324e-004,
          -1.4698491633239434e-003, 4.0021682855701749e-004,
          1.0251583597461454e-004, -6.0711760538502055e-004,
          -1.5433750730550824e-003, -1.2342006657368881e-003,
          1.0077017361995186e-003, 3.4247440657005367e-004,
          2.2584848755996699e-004, 1.3741907945421213e-003,
          5.4999956164616796e-004, -8.5550110953226492e-004,
          6.4563060365329758e-005, -9.6960184634996033e-004,
          1.2850317610182420e-003, 7.4350878044336980e-004,
          1.2878625954936464e-003, 8.7148692141966288e-004,
          8.0288263295704061e-004, -4.6638583996549228e-004,
          1.0661294461055939e-003, 1.0502707840164100e-003,
          -6.0046111821471845e-004, -7.5691370933075224e-004,
          -3.6913847765380158e-004, 1.4403840718280349e-003,
          -2.5522553106410115e-004, -1.5130699125096521e-004,
          1.3918839487682560e-003, 9.4598605741999845e-004,
          -1.0175679032217836e-003, 1.2312166529690974e-003,
          3.2364516133876825e-004, 1.5932766135333732e-005,
          2.4745083821496182e-004, -1.5276011192903664e-003,
          1.1969604321026550e-003, -1.3323003193123713e-003,
          -1.2324186894421382e-003, -1.1821004030519871e-003,
          7.1466770906601564e-004, 1.8188387310807473e-006,
          1.5952835554492828e-004, -8.6817437242393369e-004,
          1.5565403325028145e-003, 9.6216220892995658e-004,
          -5.8976513314530318e-004, -7.7922853205089789e-004,
          7.7992302379771864e-004, -1.4494969599676221e-003,
          -3.8514478637415039e-004, 1.5338161445144934e-003,
          -1.3106271279205428e-003, -1.2612714238813218e-003,
          6.7548912789843233e-005, -9.9079409995261620e-004,
          -1.2286346445615607e-003, -9.5357502190755543e-004,
          8.0048827782016415e-006, 7.6314275048310347e-004,
          -1.4254032113599773e-004, 4.8709009781374568e-004,
          -7.2649749579170694e-004, 7.0336406767789090e-004,
          6.2234667607268662e-004, 1.0967822118700646e-003,
          7.2262076241830535e-004, 6.0886043898821212e-004,
          1.0688834616119087e-003, -2.5712960789632414e-004,
          1.1941026564113663e-003, 1.2307653849580877e-003,
          6.7839542744343247e-004, 2.8386768284954073e-004,
          -5.1613655442150420e-004, 7.9382521254805171e-004,
          -4.8929853560909190e-004, -1.2958902585031356e-003,
          -1.3217034092468962e-003, 5.0790514927982930e-005,
          2.6337611840306981e-005, -7.6256494341956521e-004,
          -5.9565189503389335e-004, 1.2473054644023237e-003,
          2.4352999287577805e-004, -1.8957076002735647e-004,
          -2.9878165252851432e-004, 1.6526245747712309e-003,
          -1.0598153532633834e-003, 1.3990057188971565e-003,
          2.0927868395762743e-004, 1.5071350598803944e-003,
          1.2002153755747158e-003, -4.3615382886456951e-005,
          1.2795677600547150e-003, 6.5101566617437935e-004,
          -1.5182584595317872e-003, 1.1778104760900390e-003,
          1.4065546423192863e-003, 7.3353363210996374e-004,
          -9.6228759509605060e-004, 3.8994291304140057e-005,
          -1.1049620311507737e-003, 1.5237324070377747e-003,
          -1.4477507585326159e-003, -1.2305323134021359e-004,
          -1.0464546029186578e-003, -9.2213165521628745e-004,
          1.5059905026707681e-003, 1.1878566649586510e-003,
          9.3463348820304671e-004, 2.4022949482937120e-004,
          -4.7097518813312545e-004, 1.0431811535154890e-003,
          8.3361979322631218e-004, 1.3649798824675609e-003,
          -1.4197997475837005e-003, -1.5189285287320338e-003,
          -3.2458837382515204e-004, 1.1850658133012934e-003,
          5.6092481817037051e-004, -1.0569227029793629e-003,
          9.7404378711326298e-004, 3.5144592662117219e-004,
          1.5037646157675540e-003, 5.4058009243607521e-004,
          -7.9830835795300379e-004, -2.0075713706671123e-004,
          1.3896173727787195e-003, 1.2306197792978969e-003,
          -3.0346337064929735e-004, -1.3386966728380196e-003,
          -2.6375876022178897e-005, -9.6432634429128856e-004,
          -5.3507262612689733e-004, 1.0457564881603217e-003,
          -1.2898147381210534e-003, -1.0979831270718735e-003,
          -5.3887484384711464e-004, 2.6309331233408882e-004,
          -9.8199400350212906e-004, 8.8949002545656789e-004,
          -7.6640008540731447e-005, 1.5465093645965226e-003,
          -1.2863347740251357e-003, 1.0444287769622912e-003,
          6.9078306587024301e-004, -1.0252058666090501e-003,
          9.1184121709619143e-004, 1.4929546251590280e-003,
          1.2770900303967954e-003, -9.7600257685090354e-004,
          3.4698652861270361e-004, -1.3775205701910620e-003,
          -1.3137511533615109e-003, 1.2626277941219489e-003,
          1.2908543284549060e-003, -5.3761072142483014e-004,
          9.1636913614160916e-004, -6.0612103670208836e-004,
          -5.2591315201058422e-005, 5.9668303881129736e-004,
          6.0628126426843165e-004, 6.3511525776253886e-004,
          3.4568404597752156e-004, -8.6170133957067289e-004,
          -2.9756397490461194e-004, -1.5972199441441879e-003,
          -8.2331018958276052e-006, -7.3011439823404486e-005,
          -4.2544484756270889e-005, 1.5129770166514784e-003,
          -6.1590078074961194e-004, -6.7941814618102453e-004,
          9.9900824327384379e-004, 3.4385098165187137e-004,
          5.1209198453573039e-004, -8.8882660990166412e-004,
          -1.0435877869228592e-003, 9.8559769125397653e-004,
          -1.1537605192653646e-003, -9.9956244717269087e-004,
          1.9391859485458544e-005, 6.6586236511275202e-004,
          -4.0054202699297528e-004, -5.1841214730963486e-004,
          4.7411981965980569e-004, 4.3034094198967211e-004,
          -4.3562368358680251e-004, 6.9109842984616475e-004,
          -1.0584951817473967e-003, 8.8374065781344059e-004,
          -6.0311681043782613e-005, -7.5234816965808143e-004,
          4.2068706142341024e-004, -4.8843849772051021e-004,
          5.0161379107349950e-004, -1.3831433778874577e-003,
          -1.4879059223160916e-003, -1.2093938770146098e-003,
          -5.3529496030931033e-004, 4.9807213839497649e-005,
          -1.4819157145701972e-003, -4.0986058854864451e-004,
          2.4072815858862574e-005, 7.6847906588238145e-004,
          -2.0414860296952432e-004, -9.3887627150729565e-004,
          3.1682734738751377e-004, 6.5894849348055825e-005,
          1.4650799583110997e-003, -7.8947437275512687e-004,
          -7.1235309201912928e-004, 8.4510087851810591e-004,
          1.6845160611888787e-004, -6.6789438160807396e-004,
          6.0443893372202689e-004, 1.0171235883411473e-003,
          -8.1208287393592894e-004, -3.3666710283691191e-004,
          1.1478673756073815e-003, -5.0960558060865393e-004,
          1.0348155770265668e-003, 1.2419251594114173e-003,
          -1.1519382693072754e-003, -1.6233953356044250e-003,
          2.9898900558745990e-004, -1.3623057360812453e-003,
          -7.9679475685498274e-004, 6.6553259121149516e-004,
          2.9571371258748296e-004, -7.5446677318031943e-004,
          7.1228279376397302e-004, -1.1599739906867874e-004,
          -1.0531798051264280e-003, 6.3077699702191511e-004,
          1.2400002540701558e-004, -2.7101601463329767e-004,
          4.8410280392794091e-004, -8.2734374704546848e-004,
          -1.4499105935532775e-004, -1.5299090808940002e-004,
          -4.8814297009121987e-004, 5.0165607318487348e-004,
          -5.9287205433291115e-004, 1.0176735674589466e-003,
          -9.2108922423662476e-004, 1.1784725221597363e-003,
          -2.7284093033215506e-004, -6.8975003999689624e-004,
          5.2704483431456259e-004, 3.3751059319108676e-004,
          -5.4214557466515916e-004, 9.7640683715831780e-004,
          -1.5286681099784033e-003, 5.6630835504717283e-004,
          1.2883302434943081e-003, -4.0924574490326258e-005,
          3.3392659539015868e-004, -5.9294268921241636e-004,
          4.0361982483855968e-004, -1.5637583686443671e-003,
          6.7008143618475975e-004, -1.3649843854629017e-003,
          7.4690223337185865e-004, -3.6149501799255149e-004,
          -1.1169476196879835e-003, 3.1362065079994044e-004,
          1.0414723572631636e-003, -1.3684159846918060e-003,
          8.3345533073944504e-004, -7.2480535466842096e-004,
          9.1126113519295136e-004, 4.3529319414607276e-004,
          -1.2171676359500473e-003, -1.6227973988743147e-003,
          -1.6597321537183447e-004, 5.5782014250706333e-004,
          1.5572699621209164e-003, 1.0618782269995607e-003,
          -1.1431448396325595e-003, -5.6754643697457462e-004,
          -6.8730890152053956e-005, -9.7681704374465140e-004,
          3.1927565296651500e-004, 1.3359605498650725e-003,
          3.9358292238119108e-004, -3.9874146743903039e-004,
          -1.1720852688606976e-003, -1.2038013296528621e-003,
          -6.1959183930461817e-004, -9.2367598901684368e-004,
          -1.2537248054434835e-003, 1.3634686339226364e-003,
          1.8370885432646562e-004, -2.8098362801999961e-004,
          1.5050723378901346e-003, 4.6385714401281510e-004,
          -1.0533963588716117e-003, 3.8508077485389789e-004,
          -1.1448974189568681e-003, -1.3684124751614526e-003,
          -1.0815320476782102e-003, 2.2311217594906063e-004,
          -4.4777646818442340e-004, -2.7024069263473411e-004,
          1.1199470132025990e-003, 4.9885560519078570e-004,
          -1.1337619522655230e-004, -5.8002769927752748e-004,
          8.0826792578330493e-004, 1.9965789941984844e-004,
          -1.4979654015658272e-003, 3.5727554442302120e-004,
          1.4964498956496898e-003, -3.0146060157004733e-004,
          1.5754396251277474e-003, 8.5910472798680177e-004,
          1.3712206152762744e-003, -7.9443124932749676e-004,
          1.5207456753690758e-003, 8.0140308175585915e-004,
          -1.4964499892551571e-003, 7.4734383313362218e-005,
          1.1217003688034565e-003, 3.7962926327260785e-004,
          -1.4175398002255609e-003, 8.6540422339198596e-004,
          -5.5187827974185078e-004, -2.9269107005075744e-004,
          -1.0442861469316792e-004, -9.2723867176464840e-004,
          -6.0283476890077682e-004, 1.6024128401172762e-003,
          -1.8328379132680650e-004, -1.5076090115951279e-003,
          1.3199755810012659e-003, 5.4944971442102942e-004,
          -9.2692472484138361e-004, -1.0717733252349287e-003,
          8.9561522209628244e-004, 8.0073153717109542e-004,
          -6.0835089417162565e-004, 6.6100776187813482e-004,
          -1.0547571148561900e-003, 1.0514578447672895e-003,
          9.5749849040068142e-004, 1.2703138928721719e-003,
          1.6281828812425799e-003, -1.1906487266541469e-003,
          7.4348834240781856e-005, 1.6637557562673217e-004,
          -1.5339753032715130e-004, 5.7401621703968256e-004,
          -1.3838658943239454e-003, -1.2900048897895396e-003,
          -3.8436427603806366e-004, -1.1955824280050396e-004,
          -1.1135432909897558e-003, 7.1562497236584235e-004,
          9.3515524203554331e-004, 1.5412505022758584e-003,
          1.3698276925448584e-003, -1.4013732576599752e-003,
          -1.7332406826772682e-004, 1.2386671536002052e-003,
          -6.6277392890807792e-004, 1.4077792844322827e-003,
          -1.4309660756635573e-003, 1.0904858780818687e-004,
          4.5801498008251831e-004, -2.5126822633732558e-004,
          -1.0425752599225984e-003, -4.2378123147402411e-004,
          5.3378760679265798e-004, 7.2804544751685419e-006,
          -1.5053615443201406e-003, 8.2803332306923493e-004,
          1.1417158608137529e-003, 1.4453814572412123e-003,
          1.2946544389124514e-003, 1.4928128562866115e-003,
          1.2227086228383866e-003, -1.5114244848283686e-004,
          1.1620948996327717e-003, 8.2761360129299602e-004,
          -1.4202975976858791e-003, 1.5493726834328835e-003,
          -1.1516725048919152e-003, -1.1892179006620757e-003,
          9.3895302430996612e-004, -1.2280575147541916e-003,
          1.5063284229935479e-003, 1.5640271062590510e-003,
          2.8856354230207747e-004, -4.1069218439812411e-005,
          -2.7904227978794191e-004, -1.3117915952818959e-003,
          5.8955759875148632e-004, -1.6972298624124179e-006,
          -7.0287037218158869e-004, -1.1493601627615222e-004,
          1.4293730034647531e-003, 1.1437625994839323e-003,
          -5.8105672996371235e-004, -1.0537132228454818e-003,
          4.7120997860879463e-004, 6.6167645477646121e-004,
          -1.1935951792364911e-003, -2.6166124961200489e-004,
          3.1702674083886409e-004, -4.8409952702353662e-004,
          6.6682857665937450e-004, 1.1489556365240055e-003,
          4.6646700129083645e-004, -2.2699144533945418e-004,
          -1.3944141456957625e-004, -4.9327231214825451e-004,
          -8.4892246077064918e-004, 1.9872422522397776e-004,
          8.7695603889619770e-004, -6.5470202601298881e-004,
          -1.0631638940109562e-003, -6.6399496211996182e-004,
          1.2337467391495892e-003, 8.9668421043124754e-004,
          9.9595801470054600e-005, -5.8131525295257253e-005,
          -3.4901609221799486e-004, 7.5845966657270400e-004,
          1.5709721043490098e-003, 1.1093281606417633e-003,
          6.4187172411351526e-004, -1.1013650947007763e-003,
          -1.1930337161573674e-003, -1.5273594926195358e-004,
          -3.1267144058819043e-004, -5.7351988231374657e-004,
          -5.2042523116188665e-004, -5.3576252232084398e-004,
          -7.5676112105125789e-004, -5.0235534129029508e-004,
          -1.6411696059143239e-004, -4.1428821724464644e-004,
          6.6325861811822480e-004, 6.0830098551564022e-004,
          -1.4460294576623017e-003, -1.3192095173534880e-003,
          6.7599376568362268e-004, -1.0668364798490919e-003,
          1.3475108431855983e-003, 1.5052545777241367e-003,
          -3.1016202819579845e-004, -9.0773828353722750e-004,
          8.0494355997901338e-004, 1.2209291070196904e-003,
          -1.4061251944964307e-003, 9.6245507707887830e-004,
          3.4552247882469269e-004, 5.7171770977803226e-004,
          8.9188096410469067e-004, 1.2349202720978439e-003,
          -7.1029138028416900e-004, -2.6868266388867170e-004,
          -1.0119725899424923e-003, 5.0626440158678691e-004,
          -6.5265105311959978e-005, -7.6563061149788499e-004,
          7.1387379326736885e-004, -1.1909891518659523e-003,
          1.4878806095440780e-003, -1.3519882609418616e-003,
          2.0176272073455821e-005, -3.2871273314017073e-005,
          5.1178618656389223e-004, 5.1409056998659994e-004,
          9.3805502987153670e-004, 1.2776735860266376e-003,
          -1.5677665372745659e-003, 6.1848782490106339e-004,
          4.5973990671080103e-004, -9.1149968993141958e-004,
          1.1217867240678316e-003, 8.7126899973671759e-004,
          -1.1384416701714368e-003, 8.7571606912753423e-004,
          5.0350728125559926e-004, -1.4873184305079872e-004,
          -1.0645452278096412e-003, 1.5152640865310264e-003,
          -7.7583383343022563e-004, -5.7744793874445384e-004,
          1.0170624330980036e-003, 1.5554393930071071e-003,
          -5.6906904742274570e-004, -3.7452239547004708e-004,
          8.5441041786784135e-004, 7.7628127735067108e-005,
          2.6094342072007268e-004, -1.5564306565736685e-004,
          -2.3725372377155776e-004, 5.1409247522654004e-004,
          -3.2616339478214618e-004, -1.2847971762326546e-003,
          7.6529009227661578e-004, 9.9922511010733087e-004,
          -1.5913457872289937e-003, 3.4831436988164789e-004,
          4.7412014703178098e-004, -1.2550854926593167e-003,
          -1.3974983217413832e-003, 6.6163385420753425e-004,
          -5.7537080012489078e-004, -2.8244074769058692e-004,
          -1.5390110491831435e-003, -8.9448738824382599e-004,
          3.8762067872572691e-004, 1.2495165615770002e-003,
          -1.1162820555783591e-003, 3.2936472516722985e-005,
          6.7068103557143817e-004, -1.5119931741709055e-003,
          8.7821594431747145e-004, 1.5220419396385291e-003,
          -3.8202566229680938e-004, -5.8030672570132526e-004,
          -1.2262174747925557e-003, 5.2554683687192083e-004,
          1.4686982580893616e-003, -1.5823709250895415e-003,
          -1.5782235837035012e-003, -1.4081036356500129e-004,
          -1.2718909498535887e-003, -4.0973108163913700e-004,
          -6.0873544086998028e-004, 1.5484714264399019e-003,
          1.1028830261955067e-003, 1.5139814915896531e-004,
          9.3062166183042070e-005, 1.4027213755403094e-003,
          -7.0767449108833161e-004, 4.9461794838601082e-004,
          1.4666452553620743e-003, 1.5129116164905258e-003,
          -1.3839015038814332e-003, 7.8348421350593568e-004,
          -4.6999487447796638e-004, 8.9374442444375317e-004,
          1.2222777504171569e-003, 4.3245074937254722e-004,
          -3.4332508155229173e-004, -5.9662496289228460e-004,
          -1.2525331904438414e-003, -1.2998668656305384e-003,
          -1.7871781464589965e-004, 1.4793485641038117e-003,
          -1.3746427490940278e-003, -2.1522592940257537e-004,
          1.2064781085223020e-003, 3.0084929668244684e-004,
          1.4168648799581993e-003, 3.6321251277354348e-004,
          -1.5126934884682605e-003, 3.9628625816226997e-004,
          -7.1876606592207902e-004, 2.5146627132934728e-004,
          6.5262023919104818e-004, 5.0745141688654809e-004,
          -2.5611110113741772e-004, -1.5710240710462690e-003,
          1.2280607244812896e-003, 5.9041843295427303e-005,
          -8.9039743189262544e-005, 1.1953135413502697e-003,
          5.1348670795288975e-005, 1.1173122124998314e-003,
          -5.6267335229337511e-004, 1.2652620460180451e-003,
          1.4637925556916769e-003, 2.0185745234596651e-004,
          1.4997702877485863e-003, 3.4131985644172763e-004,
          9.1165636595041141e-004, -5.8218076001744184e-004,
          1.5287658092356486e-003, 1.4410825097885328e-003,
          1.2094061411152482e-004, 1.2540503970339993e-003,
          2.2099618856849160e-004, 1.2571335925239539e-003,
          -4.9514442064518415e-004, 1.5596811390469981e-003,
          1.0036114030437860e-004, -1.4879270386004774e-003,
          -1.5652545632040445e-003, -1.2807997742422137e-003,
          8.7696256657805291e-006, -3.0546243581613925e-004,
          -3.3158881058899660e-004, 1.1143288557745278e-003,
          1.3502249948944283e-003, 1.2079151410468963e-003,
          -8.6495760781093848e-004, -1.0985285423641598e-003,
          3.7965229258493346e-004, 1.2630933939796376e-003,
          -7.7066449829022669e-004, 4.7402401556907492e-004,
          5.5216858659989790e-004, -7.9393743989071553e-004,
          -1.1606325080036385e-004, -5.7533363522205131e-004,
          1.3312763597077971e-003, -7.3097153492666087e-004,
          -9.8548359710911248e-004, 7.8910528121431942e-004,
          1.9245531336552522e-004, -1.2377764212657696e-003,
          1.5146065741183379e-003, 1.5165923362399710e-003,
          -6.9857573723335206e-004, -6.4409243327620558e-004,
          8.3257910008941360e-004, 7.4790612734161751e-004,
          1.5897377830589481e-003, -1.4674665411682443e-003,
          2.7133712201509613e-004, 1.2482136068295015e-003,
          -1.2077144898628093e-003, -1.0275551014830063e-005,
          -2.9666710511748793e-004, -9.3707920742261755e-004,
          -1.3618397344202866e-003, 8.9827862991491891e-004,
          8.0974153627459981e-004, -3.7327145312753072e-004,
          4.1023008258976156e-004, 9.3407272897618582e-004,
          1.5751017644026167e-003, -2.4311734351553784e-004,
          -7.9508972469415485e-004, 4.5273957434113484e-004,
          8.1387017238574550e-004, -3.5207705733727052e-004,
          1.2930134798230595e-003, -3.3922736189955139e-004,
          -1.0543317877086892e-003, 1.4244837427358193e-003,
          4.1107011776791562e-004, 9.2416350876448235e-004,
          -1.4730776319200824e-003, 1.0649862257274760e-003,
          -7.9005018856543403e-004, 6.1674967106067679e-005,
          -6.0044329138336198e-005, -1.0265117078376708e-003,
          4.5395892245249776e-004, -1.2335058921171141e-003,
          -8.4904642729316776e-004, 1.2195007613189175e-003,
          9.0859472168683278e-004, -2.3368462182078430e-004,
          -9.1190762772269218e-004, -1.0624161834116366e-003,
          -1.3065858989347283e-005, -3.2740015844751237e-004,
          -1.1491022992217343e-003, 1.5648805211484016e-003,
          1.1286692642308873e-003, 8.9071688002366641e-004,
          -1.2733151928602362e-003, 1.4881876544906817e-003,
          1.2615360167189153e-004, -3.9284495699072706e-004,
          8.5830128440909155e-004, 1.0860323824210583e-004,
          -8.5470472141037021e-004, 7.9328380736371244e-004,
          -4.9406525043144372e-004, 1.3537753901707247e-003,
          -9.3403921129509211e-004, 8.9649706237651054e-004,
          -1.1428374934085983e-003, -6.4908897170258897e-004,
          -1.2814934500800957e-003, -1.4532780837432131e-005,
          -4.8729362670340930e-004, 6.8992949624568326e-004,
          -3.5512130836067235e-006, 5.5732657334996909e-004,
          8.0612506822075444e-004, 1.6322542535049161e-004,
          -9.9335550823806775e-004, -1.3672518610963246e-003,
          -5.7494666311569301e-004, -9.7925113776676088e-004,
          6.7164994998302710e-004, 1.4666572140359677e-003,
          -1.5795470022349320e-003, -1.0613846782490197e-003,
          1.1260557600237140e-003, 4.6769694959153380e-004,
          -3.7265666365007887e-004, 2.0867355710887294e-004,
          -1.5327320942209028e-003, 7.8680997328749917e-004,
          -5.2804726097717793e-004, 8.9111151584847970e-004,
          8.4887614969416216e-004, -1.3911204764007091e-003,
          -1.1833906033474743e-004, 5.0968933926188759e-004,
          -1.2283712908195865e-004, 1.4107092593404168e-003,
          -1.3023990471289371e-003, -9.6896848527120816e-004,
          1.2728738686832109e-004, 6.8766089940906110e-004,
          3.8925818881115645e-004, -8.4231603647822654e-004,
          1.5844025462024439e-003, 6.7287994146548991e-004,
          1.5413028018218132e-003, 1.5534831506702350e-003,
          1.4482458430839502e-003, -6.6714962409010709e-004,
          -5.7049267956012673e-004, -1.9431144259502139e-004,
          1.5460682216280810e-003, -1.2959935989773170e-003,
          -1.2216657789354854e-003, 2.5539008886490738e-004,
          -1.2740301161626769e-003, 9.5624619607149889e-004,
          7.2591515764658382e-005, -4.6930028964516150e-004,
          -3.0016357743125097e-004, -6.4130479424858420e-004,
          -7.1667592579370088e-004, -6.4791813576039678e-004,
          -1.4054177753294716e-003, -2.6520541200658311e-004,
          -3.6826021122952495e-004, -3.1075884720724152e-006,
          7.9643553332777058e-004, -6.5993846582227973e-004,
          -7.6377627457595179e-004, -6.5247653515488582e-004,
          1.1903154105193011e-004, -1.0463774459918765e-003,
          1.4446672665200319e-003, 1.5035157517480785e-003,
          -4.2360189158137433e-004, 7.3959924543931424e-004,
          -6.4221038627643732e-004, 1.1530712499161304e-003,
          4.2858446070073090e-004, -3.3352738968255567e-004,
          -1.1851735286511436e-003, 4.3592259721864172e-005,
          2.0933234415826832e-004, -4.4562513101386583e-004,
          3.2241295584328988e-004, 1.2956165567405097e-003,
          6.1125315991463511e-004, 1.5507465748752626e-004,
          -9.2461219685784719e-004, 5.6633805125934085e-004,
          -1.1166593096364728e-003, 3.1052257676512224e-004,
          1.1782767536220621e-003, 2.0450565732471894e-004,
          -4.1574951109029393e-004, -4.7330074275823378e-004,
          -6.9234654718453958e-004, -1.1317768456737816e-003,
          -9.7453290771861117e-004, -6.1247686790959297e-004,
          4.7342259623283625e-004, -2.4187130482606813e-005,
          6.8932380853008656e-004, 1.1894559549887969e-003,
          4.2561334556341342e-004, 1.4188444144280765e-003,
          4.2097620109004727e-004, -5.6537775550691608e-004,
          8.3830940779253886e-004, -8.8931690712733833e-004,
          -1.6097051290619477e-003, 6.0874541154066185e-004,
          6.3485668740821872e-004, -1.4006255901083929e-003,
          8.4379822051132533e-004, 4.7277004830770269e-004,
          -4.9560631685557043e-004, -1.4733734570549853e-003,
          -6.3169387543118559e-005, 2.1055818743731175e-004,
          -9.7599766666589581e-004, 1.2264187711399108e-003,
          9.9659566537500482e-005, -5.5883762787749312e-004,
          1.3164991566389937e-003, -1.2152434611539752e-004,
          1.4218466497402252e-003, 1.4448812206202049e-003,
          -8.1422348661837026e-004, -7.7605096210017191e-004,
          -1.3353642662624809e-003, -1.2270706348829173e-003,
          -1.3647310361519615e-003, -1.3377588921389062e-003,
          -1.2889412503293586e-004, -5.0010070854589032e-004,
          1.1766541605870249e-003, 2.6192437531267641e-004,
          -6.2062819811364433e-004, -2.3982992534592236e-004,
          -1.1834419068478901e-003, 1.1660717081359629e-003,
          -3.1260652409821632e-004, -4.2253097159224379e-004,
          -5.7065063584952269e-004, -1.5761676581103484e-003,
          1.4261439738461326e-003, 9.8182876782335234e-004,
          1.0785309950428522e-003, 9.8514252450101580e-004,
          4.8519959538202099e-004, 1.4260421717392426e-003,
          6.4594533233720364e-004, 1.3021851634878142e-003,
          -3.8293599093846848e-004, -1.1300013400435762e-003,
          2.9414200810430716e-004, 1.5810714874088057e-003,
          -1.4331560723955126e-003, 1.3970941994705980e-003,
          5.3326137648097297e-005, 5.6049928508801711e-005,
          1.2049967013878480e-003, -1.3075783941035344e-005,
          9.4796342029865885e-004, 2.6908048067340103e-004,
          -1.3558473913159498e-003, -8.9235648002104718e-004,
          -1.4681582004552030e-003, -1.4172156450684658e-003,
          -1.5466929923984381e-003, -1.4790696200869089e-003,
          1.4486497751483960e-003, 8.8683838144953595e-004,
          1.4116770778884737e-004, 9.5132691286259428e-004,
          2.4916536927572261e-004, 9.6520788560325950e-004,
          -1.4250234149952208e-003, 1.3027668870165968e-003,
          -3.0140327603550440e-004, -7.6160111358510930e-004,
          1.5966852826195289e-004, -4.3864934433607754e-005,
          -1.6735767505874380e-004, 6.0656261525610751e-004,
          7.2790974337585360e-004, -1.0488311796521157e-003,
          1.0168083777274254e-003, -8.0036828043898495e-004,
          -8.1168654904467989e-004, 1.1494495768981678e-003,
          6.9608901862259218e-004, 7.0824460900311781e-004,
          -4.6962182934049752e-004, -6.1466320820405414e-004,
          -4.8339892180234340e-004, -1.4322838787943681e-003,
          -1.3714104120587510e-003, 1.1872792473216097e-003,
          -9.0902297683384862e-004, -1.3985892427163112e-003,
          1.3986555997520219e-003, -9.9436471390209214e-004,
          -2.8023351481457743e-004, -4.7228976706720769e-004,
          -7.8037606843266258e-004, 2.3482925441247772e-004,
          -1.4989931565345717e-004, -1.0647491289263369e-003,
          -4.5578061816776462e-004, -3.8492927511963828e-004,
          -1.4515012634846282e-003, -7.9962420192598795e-004,
          -9.7728864806604678e-004, -1.1070538335206999e-003,
          -1.5275177748771622e-003, 5.1735899486355040e-005,
          1.1107547260542148e-003, -2.6296285438241816e-004,
          -1.4683012068261898e-003, 4.5884459439260634e-004,
          -8.2672584854424501e-004, 1.4863280022422690e-003,
          6.0692022428235923e-004, -9.6261583146902503e-004,
          1.4810213063976543e-003, -1.3172336371644246e-003,
          8.9439411335368469e-004, -5.0012142257553578e-005,
          -1.0874963521785921e-003, 2.1865415112832642e-004,
          8.7836222183276509e-004, -1.3877950075734478e-003,
          -1.1884103640089445e-003, -1.5371954150103378e-003,
          -1.0066925574199212e-003, -4.5305948803352122e-004,
          -1.1272505251872667e-003, -3.9380936450389518e-004,
          1.4952262650063095e-003, 7.1482933432451777e-004,
          -9.2946749898429161e-005, -1.3384744486940236e-003,
          9.2187908604347032e-004, -1.1555407783497547e-003,
          -1.1740598561833225e-003, -1.0273139391963613e-003,
          -1.2821776268500754e-004, 1.0545900499182744e-003,
          -1.9567595263332001e-005, 1.1296029712446545e-003,
          -3.9854520912582781e-004, -6.8788698425116133e-004,
          -1.4590005531033127e-003, -9.3654145620160432e-004,
          3.3149795550769184e-004, -1.4099234331900567e-003,
          -4.8144370525173675e-004, 8.6817192021530667e-004,
          2.3858289536283120e-004, 5.4065934272311389e-005,
          3.2468281447054566e-004, 3.7517643147194131e-004,
          9.6175919547072562e-004, 1.3743329566040323e-003,
          -7.6086823158830728e-004, -1.1480635504486942e-003,
          4.1841669955118991e-005, -4.7475234884622447e-004,
          9.8760097027801927e-005, 7.5949541039645337e-004,
          1.2365171985269357e-005, -1.5834730434499749e-003,
          5.2557837579189008e-005, 1.0032868587917802e-003,
          -9.0764985849787051e-004, -1.6095818725134724e-003,
          4.6854374363540643e-004, -6.6743523001788578e-004,
          1.4296176158170441e-003, -6.2156845859719556e-004,
          -8.6604132651639043e-004, -1.0771639002159269e-003,
          1.5189955421824851e-003, -1.0003232920290132e-003,
          -3.9628972081989566e-004, -1.2951827502080584e-003,
          -1.1808574708515208e-003, 1.0260968597735395e-003,
          -3.4375175773104994e-004, 9.5777165591124161e-004,
          1.5499421533774428e-003, -1.4784379696677343e-003,
          1.3212350972656179e-004, -2.4667282568204739e-004,
          3.2641031081830595e-004, 1.2820789076187868e-003,
          -8.7306198502844126e-004, -6.7617161867535274e-004,
          -8.4310662072553590e-004, 1.0531737793354123e-003,
          -1.6188024901588043e-003, 3.6780108982736858e-006,
          -2.8874812224935774e-004, 8.2959193548847474e-004,
          -1.0050212149369181e-003, 2.3963239446896510e-004,
          -6.0101987439842015e-004, -1.0431476073570704e-003,
          1.5140269732516771e-003, 7.8574453194773109e-004,
          1.4368744791953220e-003, -6.0548382815797739e-004,
          6.3373931162372316e-004, 9.1335580333008661e-004,
          -7.2674494642431401e-004, -1.2855573632025415e-003,
          -1.4505951234597219e-003, -8.4163690942867537e-004,
          1.1417683571357461e-003, 8.5129938314621725e-004,
          -1.4832619986052883e-003, 3.2017001718374530e-004,
          7.1207386349150304e-004, 1.0672438743920738e-003,
          -2.7235653840135932e-004, -7.8883246843309868e-004,
          -2.5905606246928489e-005, -2.4947628015588693e-004,
          -3.0632865175429021e-004, -1.4175964073643160e-003,
          4.2474381244827244e-004, 1.3659983688178376e-003,
          1.7968151585159761e-004, 1.2243026593474653e-003,
          1.3059636953353235e-004, 1.4936901705779861e-004,
          5.1127035906311624e-004, -9.6377744673906151e-004,
          1.1164138944166474e-003, -1.3585289481721408e-003,
          1.0355167800958902e-003, 9.2255377186869776e-004,
          5.1301958666711645e-004, 2.2579177534715384e-004,
          1.5806875915461006e-003, -5.5177049789154715e-004,
          -8.8169390261550384e-004, 1.5134419742647324e-003,
          1.4238864511001744e-003, 8.6829003491297168e-004,
          7.4451450245307485e-004, -4.0000728569427024e-004,
          -8.4021974988231956e-004, -1.2906925672837180e-003,
          1.3720035559234951e-003, 1.1715786889834421e-005,
          -1.4645280397913780e-003, -5.6375031942462706e-004,
          -1.4643948274688335e-004, -1.3299220376743047e-003,
          7.0086007047380895e-004, -1.5500535281277256e-003,
          1.1703778963519070e-003, -4.6180025031871834e-004,
          -5.0794383555022348e-004, 4.9133933799220847e-004,
          4.5938053111300330e-004, -9.0785886376189870e-004,
          -1.0313400686370829e-003, -2.1973527895984303e-004,
          2.7682119360278692e-004, -1.5977891036030713e-003,
          5.3151265588388967e-004, 4.3231601386666343e-004,
          -1.3246779496400090e-003, 1.5414063943507822e-003,
          5.4991938203855320e-004, 1.1984169957543847e-003,
          2.4946636039260047e-004, -1.4628377722562562e-003,
          -9.6930431706365608e-004, 6.4511663582570203e-004,
          -1.4158227866019344e-003, -3.1782341656242728e-005,
          6.0865890466209891e-004, 1.0853493178328180e-003,
          7.8925077477078997e-004, -9.3432132819240967e-004,
          8.0123185398063470e-004, 6.3092289374411953e-004,
          -1.4748319040464818e-003, -2.6722541328866631e-004,
          6.8479437149203078e-004, 1.1644667229047171e-003,
          -6.6898347836978882e-004, 6.5058766915533097e-004,
          9.7123380401005564e-004, -5.5139944002105957e-004,
          -5.9948936451748123e-004, 1.4090779318310254e-003,
          -1.4578567178289525e-003, 8.9885741816476072e-004,
          9.4138835185526696e-004, -5.0441885400803689e-004,
          1.5823689082562360e-004, -1.5597501486081943e-003,
          2.9913039602337711e-004, -1.1939948931120978e-003,
          3.2692107783136492e-004, -8.5383106482698004e-004,
          1.0093520884019913e-003, 8.5359229059562918e-004,
          -6.1976522153858271e-004, -1.1118334598075748e-003,
          -5.7105789451032533e-004, 1.2122646245793611e-003,
          -9.2316132314091358e-004, 1.5957749364493977e-003,
          9.3131828457695303e-004, 8.8354622259820541e-004,
          -1.1685879947264453e-003, -1.5142053361950287e-003,
          -1.0617937348964394e-003, 1.1708647867082033e-003,
          1.1190337120978327e-003, -1.4212125523905938e-003,
          8.7923437609935989e-004, -1.2000970463177882e-003,
          1.3533732698353714e-003, 6.2815962611520221e-004,
          -6.9654736612096010e-004, -1.4924942564327507e-003,
          -6.8896589324787003e-004, -1.2244940032918499e-003,
          4.7335436427164019e-004, 1.2164781453199158e-003,
          1.4363082210349195e-004, -8.2676094821447922e-004,
          -1.4805174163510918e-003, 4.2455001744010914e-004,
          -1.5416475332673100e-005, -1.1762638901288217e-003,
          1.1715202678478317e-003, 8.0215464353157212e-004,
          1.5896693794508390e-003, -4.5095404193809069e-004,
          -7.1248094343643201e-005, 2.6150447889363569e-005,
          -1.4522061684668882e-003, 7.3059099863856392e-004,
          1.0405366759873972e-003, 1.0564676269508803e-003,
          7.9790391900606936e-004, -6.6550803924096073e-004,
          -4.4679522987018809e-004, -6.5560832290361499e-004,
          2.8218234665374305e-004, -9.9999958368234801e-004,
          1.0195237803005239e-003, -6.0208500295760089e-004,
          3.2493503670723354e-004, 1.3697233985896921e-003,
          -2.8419196834584307e-005, -6.6874114650801052e-004,
          -1.3561763306329940e-003, -6.5637850912046508e-004,
          1.0618200317964888e-003, 1.0771493329425228e-003,
          -3.2037938680587111e-004, -1.0680080560978081e-003,
          -8.7599998898913768e-004, 7.9751282088281323e-004,
          -5.9381603133010869e-004, -3.6137106030609197e-004,
          -1.6647661626358672e-004, -1.4316735685569230e-003,
          -4.4528216397402855e-004, 1.5974590160606420e-003,
          9.8331838371247754e-004, 6.4215461251753304e-004,
          4.6718938867624848e-004, -1.2575028794520331e-003,
          9.9913243071839564e-004, -1.2472535863994653e-004,
          6.1529453330084712e-004, 1.0268732473224648e-004,
          1.5920503780139078e-004, 5.1553043827828036e-004,
          -1.1772293214006579e-003, 6.3048213223298490e-004,
          1.2334631232507052e-003, -9.8215981359374535e-005,
          -9.9965861542925536e-004, 7.3255609713778619e-004,
          -1.4121160927964187e-003, 2.4645623977736903e-005,
          9.7185455814321911e-004, -1.3421345853916330e-003,
          -9.9292361684494377e-004, -1.1936437364042855e-003,
          -1.4624308130221741e-003, -9.1153912770827012e-004,
          1.1920807805548188e-003, 1.3352026977963435e-003,
          3.2993263355693934e-004, 4.9399114473778824e-005,
          -1.5057901534955803e-003, -1.5026340941913566e-003,
          -1.2699460950494662e-003, 1.1134861398360235e-003,
          9.6200103342874836e-004, 1.1977694818641172e-003,
          -5.0224215538209106e-005, 2.3271242433483137e-004,
          3.8638488194868247e-004, -1.3905696702943359e-004,
          -6.4946275249440713e-004, -3.2134646663012297e-004,
          1.6053344795698385e-004, 1.4087256275179228e-003,
          -6.1604039332957756e-004, 2.8063739089258791e-004,
          -6.4739626483125746e-004, 8.5349074671847637e-004,
          -5.1903459678247438e-004, -1.5015052582965097e-004,
          7.1483622333230832e-004, -1.0778844172356381e-003,
          -1.5036699769768653e-003, 1.0690864140370437e-003,
          -9.1607881854589954e-004, -3.4259886484264948e-004,
          3.2556711932092502e-004, 9.9140016989340460e-004,
          -1.4344172797554867e-003, 7.6353895578599236e-004,
          -1.5606064898867655e-003, 1.1298217163732078e-003,
          6.4358622068048390e-004, -7.6525086191898484e-004,
          9.3217251255556038e-004, 1.1053682669120746e-004,
          -1.9531037802607805e-004, -1.3036903048367276e-003,
          -1.5541776142707409e-003, -5.8429194449787002e-004,
          -1.5285881419748646e-003, 1.5237771091820149e-004,
          -9.4158548075298667e-004, 1.3977701972540590e-003,
          -9.3223176472603472e-004, -1.0568526399651261e-003,
          1.0602656466285932e-003, 3.9288204734117904e-004,
          -1.0539912113299360e-003, -2.0863647305952964e-004,
          -7.9126336257863232e-004, -3.2185711768896393e-004,
          -1.5707928624066538e-003, 9.0387560570571567e-004,
          6.8624186152392003e-005, -1.2711565054378390e-003,
          7.3549210099590231e-004, -1.6236230360308704e-003,
          9.8297519827803448e-004, 4.4597942327047671e-004,
          -1.2073517312058725e-003, 1.1153500262424771e-003,
          -1.0477693427594864e-003, -7.0630322583190074e-004,
          3.3446201057766596e-004, 1.4957076364852928e-004,
          9.9277533409712257e-004, 9.5522103711006526e-004,
          5.7549088577662968e-004, -1.3674143559498213e-004,
          1.1135992075202571e-003, 8.9465784223096919e-004,
          -2.2877340513325623e-005, 9.3958389981192215e-004,
          -3.8864824629623255e-004, -4.8823367096239293e-004,
          4.5792591545000506e-004, -1.4447109987117855e-003,
          -2.4333721312604686e-004, 6.6399529233205810e-004,
          3.0564139134232985e-004, -1.0313735334258301e-003,
          8.6239581245435278e-004, -1.1330808087504638e-003,
          -1.2810329660933994e-003, 1.6129808286905792e-003,
          -1.2929976221491399e-003, -4.9552205638402004e-004,
          -8.1901752028298109e-004, -7.0207671901302825e-005,
          3.9214049701925938e-004, 1.1185528310673953e-003,
          -1.5627909523441503e-003, 5.9329527492760410e-004,
          4.5703428301705975e-004, -9.2403120620586940e-004,
          -7.2660315231564353e-004, -7.1726196341334938e-004,
          9.2249659138607745e-004, 1.0697415545450524e-003,
          1.3047333251647762e-003, 2.5200221300810164e-004,
          1.1838697933557112e-004, -1.3833338661635029e-003,
          -4.9449764749174476e-005, -8.6853964851928568e-004,
          1.1868431236962439e-003, -1.8075890919757936e-004,
          5.2962728104260777e-004, -9.5917439330399509e-004,
          -7.4828227381985266e-005, -6.9350432804048383e-004,
          -4.4911630423827834e-004, -1.5341896928000331e-003,
          1.4642193485810537e-003, 5.0663784182225576e-005,
          1.5015654174034053e-003, 8.4994962653868640e-004,
          -6.8746022698865658e-004, 1.5257495773880094e-003,
          -3.3651048720622587e-004, 1.4557488863981263e-003,
          1.1048445852418632e-003, -4.0657944673738256e-004,
          -1.3155578805367886e-003, 5.3474420490305186e-004,
          1.2759160839070541e-004, -5.4192063797242401e-004,
          4.3284480361826963e-005, -1.1868932347269337e-003,
          -1.2008041758553821e-003, 8.5488354891417200e-004,
          -1.3699475938151163e-003, -3.9737814319691005e-004,
          -1.1761095671534954e-004, -1.1058123034688046e-003,
          -1.3081718588865638e-003, -3.3146786702072036e-004,
          -5.7809062610525994e-004, 2.8140036608987820e-004,
          1.8822781408540760e-004, -1.4893463052616668e-003,
          3.4560810494134556e-004, -1.5953606697865477e-003,
          -4.2268744622752112e-005, 8.0849288223960023e-004,
          -4.0008580909593999e-004, -1.1458099779511242e-003,
          -1.2404127424470383e-003, 4.6978520647384739e-005,
          -1.2614521993336860e-003, -1.5352324972323288e-003,
          -1.4342786814513012e-003, 6.0291875797002185e-004,
          -9.8406056619134222e-004, -1.3576333624945225e-003,
          2.5703747257651730e-005, -4.0558508545004876e-004,
          7.9849729077353937e-004, -5.3599491623014051e-004,
          1.3064576702261459e-003, 1.2714077408305024e-003,
          5.0053730042259588e-004, -1.0484654268608253e-005,
          1.2982789380754079e-003, 9.4645762985693586e-004,
          -1.3154952475081245e-003, -2.1672313376708797e-004,
          -7.4048889834801618e-004, -1.3427132063843935e-003,
          -9.2074233719716949e-004, -1.0157811330177705e-003,
          -2.3630328388491879e-004, -7.2019364713374052e-004,
          5.3042983090518343e-004, 1.4045085668486258e-003,
          1.1129251993430154e-004, 6.3315006283233295e-004,
          6.6678037850175543e-006, -3.0017201493440069e-004,
          -5.7726185574674852e-005, 6.2325894285609985e-004,
          -7.2349662979607392e-004, -1.2918315340819009e-003,
          -6.8923562071068170e-004, 1.5592084202493770e-003,
          -1.1330742884287383e-003, 9.1384889341040640e-004,
          -1.7536937001436971e-004, -8.5463617647538713e-004,
          9.0868271982421107e-005, -1.4984160260557778e-003,
          -1.1498074739558480e-003, -2.7451063755044885e-004,
          -1.4345327168643204e-003, 9.6565018545651850e-004,
          -1.6380996001547711e-004, 1.4925220015303334e-003,
          1.4887162902834314e-003, -7.8998938853166512e-004,
          -1.7450744440687102e-004, -9.0869970440847015e-004,
          1.2721686464667605e-003, 9.3926139780001368e-004,
          2.5692183959373944e-004, 2.2311119017948648e-005,
          -6.6808863154480186e-004, -2.3989157121570732e-005,
          4.7924001975212206e-004, 1.4314728364234338e-003,
          9.9198537077826716e-004, 3.9534115286733837e-004,
          4.9562951689822727e-004, 1.4945996164792941e-003,
          7.4814195496891896e-004, 1.5424092127248486e-003,
          -1.5765641826781431e-003, -1.2839815268017305e-003,
          -3.6065460017386028e-004, 7.7037545457628710e-004,
          -1.3727411361018785e-003, 6.3071351259761255e-004,
          1.0600065354964801e-003, -3.7432514316565674e-004,
          -1.5058632029877990e-003, 1.5983567307398016e-003,
          -5.3265102840412224e-004, 3.6678209573048882e-004,
          1.1131135847998641e-003, -9.6288947192727328e-004,
          -3.6007604710108022e-004, -3.2238603498182107e-004,
          6.9273512707287174e-005, 1.1875723469610066e-003,
          -8.0062291905255440e-004, 2.6035280323269481e-004,
          -3.8853438696246514e-005, -5.8494441770778351e-004,
          -1.4779819935243556e-003, -2.1333083313891039e-004,
          9.0259418306335045e-004, 8.9732817302258050e-004,
          -8.6434539580388270e-005, -1.6911144642553917e-004,
          -1.5901885805966740e-003, 6.4853791068812455e-004,
          -3.4012929604416140e-004, 1.1090021838568638e-003,
          -3.2122785757825227e-004, -8.9761112722264137e-005,
          4.0818564103352231e-004, -1.4132958914067062e-003,
          -3.6810035372673311e-005, 1.4169625164469069e-003,
          -1.5645303660300296e-003, 1.4953406914448475e-003,
          1.4979653442011942e-003, -1.2776065691591149e-003,
          5.8302299302654445e-004, 1.4972755394059257e-003,
          -9.4688789401733335e-004, -1.4840709818458820e-003,
          7.0106732305500233e-004, 5.6015766978480068e-004,
          9.3171877794619694e-004, -1.2835213699418637e-003,
          -1.4403691628790726e-003, 9.5819272100894002e-004,
          7.1991680647405271e-004, 1.4200524054529644e-003,
          -5.7754426435747887e-004, -3.2657200473663504e-004,
          -8.8420730005882493e-004, 1.2822198618107968e-003,
          -6.8897896352603091e-004, -8.3002147769590498e-004,
          -9.0308010577504997e-004, 6.2984494651599054e-004,
          -7.3274315233374414e-004, 5.7088279531320731e-004,
          8.9780575591254946e-004, 4.1377240981515519e-004,
          -1.0906963722762313e-003, 1.3153276229860904e-004,
          1.0769224052484725e-003, 1.0673142478622006e-003,
          -6.6912207114827171e-006, -1.5843975326184337e-003,
          -1.4554371964024598e-003, -6.3673137849709638e-004,
          -6.9175744787569561e-004, -9.7045060972269831e-004,
          2.3891105757578319e-004, -1.0465346653260217e-003,
          -3.1113759076395182e-004, 1.4711202320104259e-003,
          1.3075389223141894e-003, 7.9797672709066149e-004,
          -7.0025121510455639e-004, 6.1403771792099924e-005,
          1.4500824814354580e-003, 1.6867091526772191e-004,
          4.4323918584792364e-004, 1.3430307692713739e-003,
          -1.5896768690159581e-004, -1.5316369311498121e-003,
          -1.3305566819665877e-003, 4.1657086296021122e-004,
          1.4969964443021918e-003, -9.2673647258908923e-004,
          1.4267763511273878e-003, -5.1785491399587429e-007,
          -1.2378430289916326e-003, -4.0209108466110157e-004,
          -1.5205146230769420e-003, -1.2105038927726455e-003,
          1.2430101742164693e-003, 9.4591124336872721e-004,
          6.5617052912940140e-004, -4.2611002205758221e-004,
          -1.4427884312906498e-004, 8.9497628848113472e-004,
          -1.5268020700350421e-003, 3.1968688385695764e-004,
          4.5080507290435001e-004, 8.3088413887738815e-004,
          -3.6190087250038917e-004, -9.8087074409137403e-004,
          5.4858637083714050e-004, -8.6899833814828406e-004,
          -2.6386852075414635e-004, 8.8474266427683221e-004,
          -1.6493735369525422e-004, -1.1229738052039384e-003,
          7.6386401407399268e-004, 1.0785589166689221e-003,
          -1.3217813375121937e-003, -8.6121795579421955e-004,
          -4.5537678332856191e-004, 1.4148384312039236e-003,
          -1.3206397898252292e-004, -1.4800508308693660e-003,
          2.7440179596214268e-004, -1.4469105597372718e-003,
          1.2568858238623441e-003, 8.8639110722732234e-004,
          6.3339229969208808e-004, 7.1577592496326482e-004,
          -8.5264911128978094e-005, 1.4295207178741550e-003,
          1.0748783961414244e-003, -8.0191841313653062e-004,
          -1.4666717347947664e-003, 1.9040871311863631e-004,
          -7.1939764308701873e-004, -1.1993882413470095e-003,
          1.3251842604175559e-003, 3.9971501379112496e-004,
          3.2246356457343005e-004, 1.4603467747159500e-003,
          -4.1726231242907285e-004, 1.2303697939430600e-004,
          -2.2421561151952571e-004, -9.0321274417175723e-004,
          2.7255369514393566e-004, 6.3052362983994790e-004,
          -2.1173288197090068e-004, 1.0594912952866032e-004,
          1.3350306684091688e-003, -1.4227099789782456e-003,
          -1.4756208362380037e-003, -3.9002493328934727e-004,
          -1.3858741017500050e-003, 6.1219202357955553e-004,
          8.4843840827068936e-004, -1.1646051326402948e-003,
          1.4428349678511517e-003, -4.7799375254834408e-004,
          -9.9128454101030431e-004, 4.7298283970009043e-004,
          8.2347770771659765e-004, 1.5913553430305673e-003,
          -1.3143529747723856e-003, 1.1033968830635511e-003,
          -4.9891284875166933e-004, -9.3970297513012795e-004,
          -1.4615747074986972e-003, -1.2074635166790749e-003,
          1.0220396473451423e-003, 1.9013232230704916e-004,
          -8.8212990517112859e-005, -5.4592174005177105e-004,
          -1.2390192612247615e-003, 5.6110925947805474e-005,
          -3.6665630146897711e-005, -1.2726866082472565e-003,
          1.8463270784968577e-004, -5.7321557960498789e-004,
          2.2983908006075804e-004, 5.2211739356734126e-004,
          8.8767371408546855e-004, 1.5238097032016105e-003,
          -1.4524356990239809e-004, -1.2325473297147315e-003,
          -9.8700373849419957e-004, 1.0507498483004214e-003,
          6.8122392048895210e-004, -4.8129149180031066e-004,
          1.3348085782088773e-003, -1.5236022571040323e-003,
          -4.5326223721302392e-004, 4.5101298499412211e-004,
          2.5736009789546505e-004, -1.3469298866395914e-003,
          7.2091492007353029e-004, 2.7929605821050510e-004,
          1.5215418373845579e-003, -7.9194865805948733e-004,
          7.9569530112750750e-004, 1.4113854252445299e-003,
          1.3661293332714590e-003, 5.5659753694562190e-004,
          -1.0406372758497596e-003, -1.1867555631178959e-003,
          -1.0771663876879148e-003, -7.9614280069210095e-004,
          4.9089072292563592e-004, 1.6258720728141589e-005,
          8.9670496867408388e-004, 1.0718102314619090e-003,
          1.4274311029330968e-003, -1.2653053523703371e-003,
          1.4697622512529350e-003, -1.3240404554996851e-003,
          -1.0282375562533834e-003, 7.8482450361687481e-004,
          7.0095184422394943e-005, -9.2658769927644825e-004,
          -4.3141985545987600e-004, -1.0313899227009256e-003,
          -3.1592988927228776e-004, 1.4590054663365421e-003,
          1.3441033840293473e-003, 4.6391808421694387e-004,
          2.0327620024922701e-005, -6.0051698541210797e-004,
          9.5742558674362279e-004, 3.5329509050947716e-005,
          1.5271369069918127e-003, -4.5795240563288521e-004,
          -9.0132374633820520e-004, 1.1307298922164500e-003,
          4.3033568336157800e-004, 5.7864993626273844e-004,
          1.2758784048166178e-003, 7.1584718876327387e-005,
          1.0290427127282451e-003, 1.3618864834174364e-003,
          6.9232774675502616e-004, 7.9490404870626301e-004,
          -6.2199185243117590e-004, 1.2139947880053922e-003,
          -2.4510235063393944e-004, -5.0198214204296560e-004,
          -8.2112860253256124e-004, 1.3297776796788289e-003,
          -3.5858636588310152e-004, -8.5920970011018705e-004,
          -6.8585696716096364e-005, 1.2202459956829556e-003,
          2.2387065812580714e-004, -9.1549134071037619e-004,
          4.5215704358273265e-004, 6.8745979837276391e-004,
          1.5046530541564232e-003, -9.9086967473440085e-004,
          -1.5611504768617145e-003, 4.6821922071556223e-004,
          5.2044011964648938e-004, -7.9289434189755014e-004,
          3.9031643396969404e-004, 3.2642955426430057e-004,
          -7.5329041116577807e-004, 1.0413164672670978e-004,
          -1.0432307983249210e-003, -1.5517483755237290e-003,
          -1.0399965361664915e-003, -1.3736037376824862e-003,
          -1.2442148065946654e-003, 1.2855447520055564e-003,
          -1.5120538721076766e-003, -1.1526216570885321e-004,
          -9.1983582071312867e-004, -1.3713785949277535e-003,
          -7.7200998988885398e-004, 2.2588460739617060e-005,
          9.0693928062569916e-004, -1.0088920751600567e-003,
          4.8810441855191286e-004, 1.5351978798646448e-003,
          1.4311126074669943e-003, 1.0010237984389136e-004,
          -1.1835557333552060e-003, -1.3190319967530523e-003,
          1.0878452278411298e-004, -1.4728975807983280e-003,
          1.5625325638587113e-004, -4.9030396879245369e-004,
          1.0789400438654441e-003, 7.6151976959736999e-004,
          8.0863049096180156e-004, 2.2290894947555982e-004,
          8.0265488715641536e-004, -2.0047686438522547e-004,
          1.1288437010925881e-003, -4.3877709179931880e-004,
          -1.4698349738666908e-003, 1.1644488454006202e-003,
          -4.8403772639494256e-004, 4.4305514418593986e-004,
          -5.7914248968025570e-004, 9.2784654989634861e-005,
          3.7926448104805640e-004, -2.4489962414287863e-004,
          -1.2059100205877417e-003, 1.0686961847525060e-004,
          -1.3071408811401984e-003, 1.3269029189578573e-003,
          2.9860951093647962e-004, 3.0269270865589793e-004,
          -6.2533260035430450e-004, -1.2238694714312728e-003,
          1.3198750227064861e-003, 5.8046399003488321e-004,
          1.0868669426794717e-003, -3.1144812577198737e-004,
          -1.1234855192843007e-004, -6.7676417217911900e-004,
          2.7855268630066679e-004, -5.8965555236479932e-004,
          1.4815155249299284e-003, 1.3226066951464016e-003,
          -4.7942376080495455e-004, -8.0829544913394238e-004,
          -1.4019737127540391e-003, 6.2241764044364170e-004,
          -6.7724141326754332e-004, -1.6624433753779542e-004,
          8.8023601498386371e-004, 2.1834310663508883e-004,
          -1.5250846928946309e-003, -3.4962242181377055e-004,
          -5.5733512538021245e-004, 7.3991131077857030e-004,
          -1.2332847665365518e-004, 8.7156795013397764e-004,
          -2.0365691718570085e-004, 1.0694828476858701e-003,
          -1.0219071206881852e-003, 8.1673715206177658e-004,
          5.2582350284422624e-004, 1.3341090296079374e-003,
          -2.9149987632476180e-004, 9.6169842031577099e-004,
          6.9408900877434285e-004, -2.4613157445693793e-004,
          1.0784135824477663e-003, 3.2722292520386155e-004,
          3.8118608592161568e-004, -5.0683971996787537e-005,
          -4.2972687909864768e-004, -9.9757592573428318e-004,
          -1.0375053780980630e-003, 1.2476234581708201e-003,
          -4.1595953840544678e-004, -1.6272474168071337e-004,
          6.1601904626767511e-004, 9.3208633685954714e-004,
          1.4190246916875662e-003, 1.1619535677728986e-003,
          -1.3178303422794785e-003, -1.5448694042913325e-003,
          4.3967930561683802e-005, 1.4787987897077652e-003,
          -1.7527928338411796e-004, 1.4784892966054207e-003,
          1.1589256761942058e-003, -5.8012734735879412e-004,
          -7.8634277449565575e-004, 7.5061933095488872e-004,
          -7.7386326106217813e-004, -4.6761642442078320e-004,
          -1.2386246168863250e-004, 9.3518855871063200e-004,
          1.7842632899992152e-004, 1.0591424722409138e-003,
          8.7140762630588892e-004, -2.7112035268526231e-004,
          2.4382758920666952e-004, 1.1385603541442503e-004,
          5.0484658604094492e-004, -1.3566006766626752e-003,
          -9.0430499157237627e-004, -8.8092251573039569e-004,
          2.2321701837172236e-004, -1.7782937027847751e-004,
          -1.8837941715605625e-004, 1.5073716839661027e-003,
          -6.0962908126254681e-004, -1.2587940983882905e-003,
          -1.3362690007906006e-004, -1.4763049011660534e-003,
          9.5040354238415641e-004, 1.0992565767523159e-003,
          -1.2940335446736196e-003, -9.2870975992891537e-004,
          1.7431253507557644e-004, -4.1727909375022942e-004,
          1.3041573695330038e-003, -1.4631313306617891e-003,
          6.8939431869064881e-004, -1.5293412035030187e-003,
          9.7161713868891076e-004, -1.0648932048800827e-003,
          5.4612589821084062e-004, -1.7268636198436045e-004,
          1.1548732435670951e-003, 1.9059486031770543e-004,
          6.7652320791354332e-005, 7.4927513990598750e-005,
          8.7711311235002718e-004, 2.3495010181244556e-004,
          1.5919574313412695e-005, -1.3305407804087787e-004,
          -7.9322594881525656e-004, -1.0773191941655200e-003,
          -9.9001872859160183e-004, -2.9199565690478022e-004,
          -1.2622763753060869e-003, 1.6803912143617151e-004,
          -1.4920452050069444e-003, -1.3849450373798357e-005,
          1.5646084247878287e-004, -8.0542928006033037e-004,
          1.0598748473209373e-003, 1.2361966832035844e-004,
          -1.0374978884801574e-003, -1.3433055493871455e-003,
          1.3325965928911963e-003, -2.7285913794667684e-004,
          4.2395037218559428e-005, -2.4501214772235319e-004,
          -9.1952824061393521e-005, 8.2494717836988812e-004,
          -3.0305575954575831e-004, 3.1958069733705808e-004,
          1.0220623261501490e-004, 1.4095228686156144e-003,
          1.6847419026851421e-004, -1.2233320604107512e-003,
          8.2657273683102949e-004, -1.3817339662194298e-003,
          -5.3797992106083031e-004, 1.8616517264558106e-004,
          1.3278449964614254e-003, -2.3050816193885806e-004,
          -2.5299172149327636e-004, 3.9693256544981519e-004,
          1.1602626856234140e-003, 1.2508788067254954e-003,
          -1.3174751315756157e-003, -7.0130810543210975e-004,
          -1.0021667592177677e-003, 7.0735463235733738e-004,
          -1.0693990026841933e-003, 9.4572549285103929e-004,
          1.0204278841233165e-004, 1.4780495566232893e-003,
          -1.0840918733531337e-003, 1.3637708987516792e-003,
          -2.3909797363523511e-006, 1.1205642316204042e-003,
          3.5912557645405768e-004, 3.1542864582128803e-004,
          -9.8965837318894332e-004, 8.2282311272757909e-004,
          -9.3201851310411980e-004, -5.5493356667545978e-004,
          -3.9771872556124393e-004, -9.2473836865284852e-004,
          -1.1820573047540584e-003, 1.0815639981761633e-003,
          3.5968393103572553e-004, 1.0300298022441834e-003,
          -1.3196902583276129e-003, 1.9220142394602477e-004,
          3.0894981349568671e-004, 1.3469300708230639e-004,
          5.3828278788194388e-004, 3.7658982894053173e-005,
          1.3473661402782465e-003, -4.1213089842121481e-005,
          -6.5130737898122461e-004, 1.3522957490214554e-003,
          -8.6048462577681525e-004, -1.1894627624524515e-003,
          -6.2697708640448982e-004, -1.5363906940715230e-003,
          -8.4867662832545366e-004, -7.1711435783750760e-004,
          -1.1735034676680471e-003, 4.0095354112857002e-004,
          -3.1282696819279703e-005, 8.6340494196326121e-004,
          7.0858639837543755e-004, 1.3403424450689867e-003,
          -2.9931434040807663e-004, 1.2200972197630661e-003,
          -3.9296984851380174e-005, 1.3444935623216935e-003,
          5.6494681867946350e-004, -6.0178238202884967e-004,
          5.4154428318247847e-004, 1.1962987435457397e-003,
          -7.7008401210793226e-004, -7.6372532788751749e-005,
          -1.0040591186163236e-003, 8.4759531778204453e-004,
          -2.3356321537907219e-004, -7.5988065915732879e-005,
          7.9789838289599704e-004, 6.3081918750315397e-004,
          4.2198499505157285e-004, 4.2774871877266447e-004,
          -3.0140810406269122e-004, 1.2592228325084933e-003,
          1.3552994508249758e-003, -8.7920230232558638e-004,
          -1.9378954609770670e-004, -9.3134709564158635e-004,
          1.2764444576677900e-003, -7.3572341924843727e-004,
          9.7317245442932697e-004, -1.4760940817764559e-003,
          -1.3059453392031521e-003, -6.3823593244551481e-004,
          3.1948697693362092e-004, 2.3296075627593535e-005,
          -5.7071320287655912e-004, -1.4943306049651024e-003,
          -1.4629482688810283e-003, -8.7012704635762190e-004,
          1.2851147841973858e-003, 1.2002583688577157e-003,
          -9.6233999781177634e-004, 8.4960510951084670e-004,
          -9.0517343181942744e-004, -1.0213942403121466e-003,
          -1.3875724801144513e-003, 3.9088482508805033e-004,
          1.1343516699267921e-004, 4.8927324353852012e-005,
          -1.1105998359519265e-003, 1.5352459612046102e-003,
          8.4981844491497727e-004, 2.7449204606012640e-004,
          -2.0085646963455972e-004, -5.9671149104609873e-004,
          1.1268866786327306e-003, 5.6779505564970366e-004,
          -8.8886172290250566e-004, 5.6380887624676249e-004,
          -6.2803724588783528e-004, -1.3686554286292344e-003,
          1.2131148892048759e-003, -5.2245923094463274e-004,
          -9.0045455964111900e-004, -9.4109485654297572e-004,
          -1.1109187706524820e-003, -3.4909314834860350e-004,
          -7.1373361180169820e-004, 5.1153736210148894e-004,
          -4.8842140748158662e-004, 1.0564140777354926e-003,
          1.0113041774140468e-003, -2.6796742236881389e-004,
          1.3961657348735398e-003, -8.5363789101984013e-004,
          6.1897976603783665e-004, -1.3955885357066519e-003,
          -8.7996638376841563e-004, -1.0642405772597679e-003,
          7.2241359401229777e-004, 1.1117971027428638e-003,
          7.3324230092946684e-004, -1.5004413838314683e-003,
          -6.5025121992321074e-004, 1.3779326987934028e-003,
          7.9170560128678531e-004, -4.7242263422699109e-004,
          1.1069138250023843e-003, -5.9524415470886311e-004,
          1.1041914363595202e-003, -8.0495863597406317e-004,
          1.1724436813582214e-003, 8.7398607473289293e-004,
          -3.9082441245543023e-004, 1.4909718367462333e-003,
          1.4981310902122511e-003, 1.1068058120113228e-003,
          1.3323594681889251e-003, -1.5732618781519948e-003,
          -5.7760022487697658e-004, 1.5512693069204126e-003,
          -8.6367629932211491e-004, -1.2835445260659291e-003,
          -1.3186845125142828e-003, 3.0653336402559041e-005,
          8.4554312064195403e-004, 4.4830180161952208e-004,
          -1.1807594798709862e-003, -4.8898739991080561e-004,
          1.2434303804612769e-003, 1.2191945076754725e-003,
          1.5012327419304395e-003, 1.4084821397332573e-003,
          -1.4259332034922054e-003, -4.0834361105716090e-004,
          -1.2700681785961089e-003, 1.0230418659424700e-004,
          -9.2195615641814084e-004, 1.5080423687009686e-003,
          1.2507769572562572e-003, -1.5474071257085025e-004,
          -1.3386580418057797e-003, 1.3106885659572117e-004,
          1.4449522429170881e-003, 1.1666707506704447e-003,
          3.4573502247234897e-004, 1.5749359875730166e-003,
          1.5624675317013202e-003, -4.1328093662351743e-004,
          5.7464077755681707e-004, -9.4134756170736762e-004,
          -8.2822528202948693e-004, -4.3071571962960902e-004,
          -1.3056502894672631e-003, 1.4685027036841012e-003,
          4.2378475732146126e-004, 3.2577140385518759e-006,
          -4.2176416128736512e-004, -6.6860580496581944e-004,
          1.5963403447696576e-003, -2.3937804775963942e-004,
          -1.2471728162324371e-003, 1.1261253060228611e-003,
          -1.0767653135046677e-003, -1.5135014931801959e-003,
          -2.8603921226948913e-004, 3.3432710801631441e-004,
          4.9318248208240069e-004, -1.0601338713254374e-003,
          -4.8629486338302606e-004, 2.5409498404739375e-005,
          -8.5416889845540218e-004, -1.2745007909199335e-003,
          -3.6799336746631557e-004, 1.1451673319022757e-003,
          1.5279171158522472e-003, 1.2873748382435707e-003,
          1.5122367065807277e-003, -1.2921521004270490e-003,
          4.1449060375927892e-005, 1.4834661787565255e-003,
          1.0704665711498051e-003, 1.5926738205240239e-003,
          6.4839931616038056e-004, 3.4164439422820477e-004,
          4.8498610262561875e-004, -7.3472494190521189e-004,
          -1.4265220370695926e-003, 1.1986083831878390e-003,
          -1.3433027184770179e-003, -2.4440342727498083e-004,
          -5.4566703991267332e-004, 4.8553497043236210e-004,
          -6.9175430793095454e-004, 9.7485437621616292e-005,
          9.1716644726660610e-004, -6.3930630880196606e-004,
          3.4736319574130484e-004, -5.1178602704972430e-004,
          1.1504404819280543e-003, 1.9610473895353509e-004,
          9.3075564827755839e-004, 5.9977758488229658e-004,
          1.1565181569682095e-003, 1.1867938074564934e-004,
          1.5572447560589480e-003, -2.0508719691697425e-004,
          8.7996098527040611e-004, -1.0377177374491506e-003,
          -2.6840139547919733e-004, 6.0771986667125554e-004,
          8.9179720152729545e-004, 1.3709706677858329e-003,
          -1.0345293889285000e-003, -1.8176267429128673e-004,
          1.2264052922649886e-005, 1.3957317207388174e-004,
          1.2196091834766553e-003, 2.1010848887292679e-004,
          -4.8897002020178450e-004, 8.1455346580533992e-004,
          -3.6803019411428905e-005, -8.3412878375107690e-004,
          1.3751963647451598e-003, 2.0362970072100822e-004,
          1.0282647824073825e-003, 1.1003783288158454e-003,
          1.1972414265900731e-003, 6.7662363183899150e-004,
          -1.1951167884298552e-003, 6.7896271634690190e-004,
          -2.6176481712997159e-004, 6.8801531956165138e-004,
          -1.5902413105321896e-003, 4.9956730458335606e-004,
          5.4124124278652778e-004, 2.0394940339442266e-005,
          1.5820646253979994e-003, 1.4117207647454275e-004,
          -7.3909754020617230e-004, -4.2273803260272871e-004,
          -4.5765882680679538e-005, 5.6436951475433486e-004,
          -1.3814474754706787e-003, 1.3606217312562632e-003,
          1.5590314539761551e-003, 1.2735747300480294e-003,
          6.5725886327288306e-004, -1.3313716603874305e-004,
          -2.0327906343500584e-004, 9.7699023562939345e-004,
          1.2906079041841395e-003, 9.4381256882976610e-004,
          -8.4393808096658578e-004, -1.5589687391602079e-003,
          1.6245351949425156e-003, -4.7463083540384211e-004,
          -7.3616522271418487e-004, 7.3354767054351869e-004,
          1.0070543721212870e-003, 1.0341055610538373e-003,
          1.5049695750640364e-003, -1.0835659504131955e-003,
          -1.5060578323426125e-003, 6.1732429520456613e-004,
          3.3930487762453204e-004, -4.6847104551595301e-005,
          -1.3701075061017063e-003, 5.8076835776373522e-005,
          9.6584579191224889e-004, 1.5666106133814600e-003,
          -9.3383021829560476e-004, -1.0420608264931066e-003,
          6.2420163248578522e-004, -9.6692551332849808e-004,
          1.5447645424000614e-004, 1.1448715472874016e-003,
          7.5022007541094258e-004, 1.2159645196957018e-003,
          -5.5579706659973356e-004, -6.4533885934841661e-004,
          -1.4132572178820974e-003, -5.6927527065379392e-004,
          1.1220319194915908e-003, -7.8653315066937450e-004,
          2.9925578048335447e-005, 8.5949964328774589e-004,
          7.1242693857432216e-004, 1.4935727830622915e-003,
